encog,BasicNetwork,java,3.1.0,1,1362305745459
[BASIC]
[BASIC:PARAMS]
[BASIC:NETWORK]
beginTraining=0
connectionLimit=0
contextTargetOffset=0,0,0
contextTargetSize=0,0,0
endTraining=2
hasContext=f
inputCount=400
layerCounts=59,401,401
layerFeedCounts=58,400,400
layerContextCount=0,0,0
layerIndex=0,59,460
output=0.0000056608,0.0000006112,0.0000091877,0.0005232615,0.0008574612,0.002964607,0.0049943108,0.0009195462,0.000005413,0.0026328768,0.0000181874,0.0155587275,0.0012226219,0.0027085127,0.0000044536,0.0004754165,0.0082980823,0.0024715531,0.0354540673,0.0006292163,0.0126491408,0.0009263336,0.0185151078,0.0019561989,0.0188189762,0.0083564214,0.0010425983,0.0006133164,0.0107826216,0.0197780273,0.0048380329,0.0001644191,0.0006354958,0.005537794,0.0003619586,0.0017206217,0.9248294053,0.0127918454,0.0000965274,0.0062887921,0.0421507394,0.0037888485,0.0086519637,0.0009153605,0.0005647879,0.0182693089,0.000000302,0.0020579192,0.000368842,0.0000086895,0.0170844752,0.0000412406,0.0000001465,0.0006799661,0.0000125745,0.0042319396,0.002484737,0.0000040267,1,0.1758166842,0.7946959576,0.9940672789,0.9593456937,0.9999999986,0.9481498369,0.050512678,0.6063810479,0.6230402685,0.0000869255,0.9950280628,0.9999999377,0.99100125,0.0000009253,0.000009328,0.0000950507,0.0000710176,0.0136370203,0.0059275636,0.9629780041,0.5287563752,0.0763725568,0.0174236358,0.9990904026,0.4377405539,0.0000004959,0.1554673178,0.8495021759,0.9629405711,0.00001372,0.2566318815,0.037816257,0.062679577,0.000022449,0.0000211166,0.9947881573,0.9997533024,0.0000292916,0.0441303694,0.0001797217,0.9476068987,0.1221385806,0.8845342732,0.0000324141,0.0000695045,0.0542772565,0.1558234567,0.0036847962,0.0018956879,0.9999907606,0.9952759797,0.0011758667,0.0119216574,0.0000001853,0.6283735414,0.0001190623,0.0839078374,0.0000000026,0.9999997871,0.0046866142,0.0305452858,0.0602448296,0.0000122488,0.9999931192,0.0057337376,0.9809960543,0.9213169659,0.0001210493,0.587826,0.0416362667,0.9487232118,0.6503492141,0.0249567215,0.7478156396,0.0000464829,0.9983942734,0.035423369,0.5791330137,0.9983751956,0.9812518263,0.0087919957,0.0010356241,0.3633699432,0.7088453099,0.6712497233,0.9993898711,0.7189610829,0.0000172182,0.0588690123,0.0000247478,0.997456293,0.999448464,0.9985478666,0.0006878684,0.0423419545,0.0820328295,0.7826146495,0.1745187341,0.005554964,0.0032984752,0.9854260848,0.9999906831,0.8668193397,0.0000714091,0.9372888982,0.8811592018,0.9964835777,0.9574080086,0.6442620709,0.9890557391,0.9940730214,0.4478484651,0.0001409526,0.9971033297,0.9992336539,0.0316209651,0.1709563697,0.6480828079,0.0011146129,0.9960005378,0.000437527,0.9909955032,0.0181969622,0.9999474457,0.000181852,0.9208545292,0.9968377068,0.8831674669,0.7134639948,0.9725888269,0.0029768933,0.1074689807,0.999634882,0.6088758054,0.8682400814,0.9996869071,0.9891565055,0.0000046387,0.0497780156,0.0002636991,0.9999998849,0.5621331415,0.6540315397,0.000504936,0.085154144,0.0033586618,0.9141447589,0.0000172043,0.0000102511,0.9977487309,0.0046591479,0.0002633669,0.0000744625,0.0000366312,0.9995923789,0.9976086962,0.9805088798,0.8609390018,0.0000114674,0.4497935762,0.0000111031,0.999999982,0.000010799,0.9978994829,0.8499686002,0.1925499569,0.9972362114,0.5517959741,0.9975736032,0.9940969263,0.4959395643,0.0000000734,0.9742593617,0.0000008838,0.0000000104,0.0007029169,0.0007893488,0.964394824,0.9998371797,0.9991113069,0.7029769534,0.4389940157,0.9997898213,0.0389798621,0.9735231347,0.9714307626,0.1442216549,0.7413962853,0.1153242077,0.9985224682,0.9999461829,0.0000119841,0.6546896848,0.0020443423,0.6078800422,0.8928306385,0.7228886088,0.0019258037,0.9981947833,0.9821679854,0.1057056868,0.0000282315,0.0001043449,0.0351226388,0.9964440695,0.0000022216,0.0000026781,0.0000001798,0.0002956414,0.166337073,0.053356376,0.9999974374,0.9999987877,0.4301980552,0.3821841298,0.9706904192,0.9953125689,0.6476564916,0.9380682554,0.0000000263,0.999968083,0.0025245933,0.0038446787,0.9969674898,0.0145865136,0.1858963753,0.0000074306,0.0078369257,0.000099248,0.000000613,0.000000011,0.000000024,0.5380035408,0.0000429953,0.9772308448,0.999932709,0.0000464505,0.0001027494,0.9312202226,0.0895521899,0.8618590086,0.0280014209,0.0000021404,0.000002517,0.0016206539,0.9997826202,0.8487449198,0.0000038795,0.5656846205,0.0000513027,0.9535233958,0.631604987,0.0000127609,0.0636844276,0.4316451312,0.0519267027,0.0003499849,0.999952871,0.0000079318,0.0000345109,0.0422258543,0.0000323281,0.0972888934,0.0196291543,0.0000500811,0.0515478499,0.6880909951,0.9682287203,0.9993257019,0.9998894181,0.9998623299,0.0455755575,0.9754181326,0.0000361134,0.0249162097,0.0000040328,0.9665817093,0.0000672773,0.2295420546,0.9998358658,0.0000061971,0.5747814763,0.0010524633,0.4845327748,0.0001524473,0.0600510459,0.9928562051,0.0050978683,0.466054232,0.9915350665,0.0651240089,0.9949218455,0.0002806689,0.8975772588,0.8219302555,0.935996548,0.3315827968,0.0001511458,0.004332328,0.7995966605,0.0093532315,0.9999073815,0.8615722612,0.0000091528,0.4335107053,0.1917511241,0.0007600865,0.0041366881,0.0017261769,0.8495798161,0.1935795704,0.0036764896,0.000017735,0.0052355587,0.7079480602,0.0001598508,0.2099614007,0.0113377415,0.7455934347,0.0000001223,0.029030066,0.0110416109,0.9998676404,0.0000242721,0.6600199399,0.9999994387,0.0000659461,0.1979823973,0.1184226774,0.0002036948,0.0002895587,0.0004630987,0.6071039096,0.0416337606,0.374958254,0.5137211319,0.0000058377,0.9944681602,0.9990221109,0.7854751485,0.0000025235,0.9593209234,0.9218641887,0.0000443122,0.0014649193,0.0000082931,0.999997563,0.0002233167,0.999995136,0.0009486555,0.9942408307,0.0000529976,0.9362499413,0.0390902525,0.0002050325,0.8554572428,0.9993951897,0.0057544509,0.0003090861,0.9999666517,0.0616633799,0.000051355,0.9698722797,0.0281214558,0.0006471775,0.0053844642,0.9849032772,0.9817748252,0.9999974271,0.0000107435,0.995180236,0.8351370927,0.971537262,0.9999932274,0.8442564582,0.9964957162,0.0024370659,0.0046196757,0.0000012745,0.0040164156,0.189325757,0.0990500293,0.0059392068,0.9965503491,0.0036570186,0.00330358,0.7790098762,0.9999933052,0.0019016215,0.0000003477,0.000177567,0.9886603808,0.9998357727,0.0032251756,0.0019678341,0.9914443394,0.0016911584,0.0001278098,0.7665456474,0.0586650374,1,0,0,0,0,0,1,1,0,0,0,0,0,0,0,0,0,0,0,0,0,0,0,0,0,0,0,1,1,1,0,0,0,0,0,0,0,0,0,0,0,0,0,0,0,0,0,0,0,1,1,1,1,0,0,0,0,0,0,0,0,0,0,0,0,0,0,0,0,0,1,1,1,1,1,0,0,0,0,0,0,0,0,0,0,0,0,0,0,1,1,1,1,1,1,1,1,1,1,0,0,0,0,0,0,0,0,0,0,1,1,1,1,1,1,1,1,1,1,1,0,0,0,0,0,0,0,1,1,1,1,1,1,1,1,1,1,1,1,0,0,0,0,0,0,1,1,1,1,1,1,1,1,1,1,1,0,0,0,0,0,0,1,1,1,1,1,1,1,1,1,1,1,1,1,0,0,0,0,0,0,0,0,0,0,1,1,1,1,1,1,1,1,0,0,0,0,0,0,0,0,0,0,0,0,0,0,1,1,1,1,1,1,0,0,0,0,0,0,0,0,0,0,0,0,0,0,0,0,1,1,1,1,0,0,0,0,0,0,0,0,0,0,0,0,0,0,0,0,0,0,0,1,1,0,0,0,0,0,0,0,0,0,0,0,1,1,1,1,1,1,1,1,0,1,1,0,0,0,0,0,0,1,1,1,1,1,1,1,1,1,1,1,1,1,1,1,1,1,1,0,1,1,1,1,1,1,1,1,0,0,0,0,0,0,0,0,0,0,0,0,0,1,1,1,1,1,1,0,0,0,0,0,0,0,0,0,0,0,0,0,0,0,0,0,1,1,1,0,0,0,0,0,0,0,0,0,0,0,0,0,0,0,0,0,0,0,0,1,1,0,0,0,0,0,0,0,0,0,0,0,0,0,0,0,0,0,0,0,0,1,1,1,0,0,0,0,0,0,0,0,1
outputCount=58
weightIndex=0,23258,183658
weights=##0
##double#183658
   0.0720222164,0.0287145134,-0.3483517491,-0.2860622052,-0.2972954604,-0.0144366118,-0.028845176,-0.0007771836,-0.2135487046,-0.1028563976,-0.286773805,-0.2891898849,-0.3791776375,-0.2182769099,-0.0519362952,0.1796233232,-0.0907140489,0.1505081471,0.2504057299,-0.2962036479,0.1915897858,-0.3120895633,-0.0780562095,-0.219595156,-0.0611391163,0.0178644134,-0.3760045938,0.2857836995,0.1405881352,0.306584276,-0.25959015,0.2825831972,0.0856687032,-0.1635928065,-0.3126437429,-0.3616872221,0.2595523804,0.0811859565,-0.1375799191,-0.0988242098,-0.2356579343,-0.1622184171,-0.1696731342,-0.0475273115,0.0022069305,0.079188249,-0.1399953607,-0.3905405185,-0.1153479624,-0.1819594112,0.1801882232,0.0267321541,0.1865876076,-0.1605889695,-0.3001654001,-0.3848720473,-0.3687223378,0.3742599658,0.1843660832,-0.0168871979,0.2255540958,0.2202951546,-0.3267398677,-0.3778602028,0.2520282615,-0.3549388822,-0.2902370193,-0.1533136953,0.1331053719,-0.2217607203,-0.044756571,0.027516518,-0.282088917,0.0059583359,-0.1840486528,0.1591223899,-0.1154578071,0.0146969132,-0.3558114514,-0.201356595,0.2274894624,-0.1314868202,-0.1557201507,-0.2381376525,0.2768744376,0.1499319863,-0.1884431736,-0.3331496972,-0.1824406635,0.0369446828,-0.0497204395,0.1232136139,0.0304486252,-0.2779047924,-0.0894574118,0.232705643,-0.369994249,0.1899402492,-0.190820574,0.2175184887,0.0999383653,-0.2732890356,0.1591406369,0.2723990447,-0.0520135356,0.2073140287,0.1337836874,0.1292519694,-0.34624384,-0.062496278,-0.2114374023,0.1685869205,-0.1013941227,-0.1785600727,-0.1954003099,0.2473711674,0.2196364309,-0.1214366465,0.0733746801,-0.3291582001,-0.1882523349,-0.0621653727,-0.2077684804,0.061485173,-0.0881123215,0.153205848,-0.0641583447,-0.3633620974,-0.1112113455,0.3133004919,0.2705117493,-0.2687364025,0.3136051391,-0.171920192,-0.2135132876,-0.1993290434,-0.376200486,0.0277349824,0.222174114,-0.1180669694,-0.3279228323,-0.2159119499,-0.3370048776,0.1219318174,0.1903244558,-0.0994929589,0.0717832768,0.2604817057,-0.1936736522,0.2195909324,-0.1131039589,-0.2940398249,0.2021390521,0.1012856993,-0.2176401254,-0.0844312284,0.2246930457,-0.217323556,-0.1290611497,-0.2698016701,0.2962414084,0.3089740326,-0.2266486275,0.0512804282,-0.1343745107,-0.2897192249,-0.0586631136,0.1764616276,0.2232973266,-0.0512618753,0.2316526493,0.3264986387,-0.0308863354,0.3432227279,-0.1467415971,0.2446101538,0.1296354286,-0.0275989534,0.1491948582,-0.099584864,-0.1170233439,-0.1919854227,-0.298703829,-0.2429276628,-0.2832488803,-0.3586537103,-0.1319455932,0.1629026929,-0.3247847086,-0.2934995683,-0.2118765395,0.1475019714,-0.0243359322,-0.1043163651,0.2810735922,-0.2166674977,0.0024547102,-0.1019768099,-0.249408239,-0.007744242,-0.1761871555,0.3213154099,-0.0000238177,0.0775036327,-0.250420349,0.2585109776,0.2400982153,-0.1128175794,-0.1239391485,-0.0696417955,0.0099132098,-0.1068290928,0.2969700005,-0.1660154871,-0.2182738841,0.0843782411,-0.0449375546,-0.3558927931,0.0109486078,0.0919667426,-0.3372035955,0.0526766104,-0.0556151859,0.0787067238,0.2887893432,-0.3603659555,-0.0538046577,0.163243386,-0.2300655504,-0.2577798148,-0.1114253469,0.1504437019,-0.3604186697,0.1001056593,0.1148200455,-0.013761441,-0.034507697,0.0016385214,-0.1806549787,-0.1314714974,0.0222540506,-0.2501025626,-0.1132525955,0.0785833406,-0.3862586769,0.214859113,-0.1054968182,-0.1944304735,0.1218674908,-0.1025826975,-0.2138650849,0.213795445,0.2129241901,-0.0504959885,0.1183922208,0.1854492298,-0.2297457645,-0.352253968,0.1406818922,0.3206541574,-0.3763233317,0.1620884636,0.3056784881,0.2579624675,0.1556465232,-0.288279816,-0.3791161349,-0.0199998277,-0.2471474396,0.0776868357,-0.1047354267,0.1131771699,-0.2914111808,0.3491680976,-0.0800206053,-0.0193119011,0.171100643,0.1767858459,-0.142856315,0.0302467046,0.1658451798,0.2748578971,0.292647573,-0.3515228071,0.2150628177,-0.3097928694,0.1147039413,0.28330737,0.0755279627,-0.2776773709,-0.0471760178,-0.3310142698,0.2470002233,0.1436487588,-0.3666102216,-0.1937983928,0.1684592342,-0.1077200931,-0.0231686148,0.0158921701,-0.025924009,-0.0089703947,0.1157294,-0.2057611186,-0.162474175,0.0220785393,0.1429485328,0.2889277714,0.1737808878,-0.1954383183,0.2743555013,-0.2234459392,-0.0031865586,-0.3079033005,-0.1347885466,-0.1284752919,0.2175710889,-0.3522937312,-0.3409685069,0.1243276545,-0.273007989,0.3189014809,-0.2540372078,0.015765512,0.0285073744,-0.3201257524,0.1493337501,0.2253073991,-0.3223541045,0.0068909852,0.1166297998,0.0447785672,0.0604607914,-0.1663646981,-0.1317754293,-0.2225514629,0.1201247595,-0.1538106096,-0.0716990444,-0.2427019215,0.3065399365,0.1414256085,-0.0917893581,-0.0668629913,0.3476713943,-0.2283196239,-0.12676403,0.0271160248,-0.2257218903,0.0352046026,-0.1252753993,0.1625316659,0.0874106294,-0.1097863612,-0.0418209355,0.2856616433,0.1420693884,-0.0512286824,-0.1874421717,-0.2947420291,0.0113890843,-0.0025883614,-0.3147744717,0.289776805,-0.1769252224,-0.2687217769,0.1274320983,0.3191253518,-0.2724274051,0.1251423529,-0.0571578514,-0.327093836,0.2323248808,0.2093213259,0.3020090959,0.0468578584,0.3253967521,-0.1319136104,0.1286701709,0.2154110762,0.0892900586,0.0965827954,-0.0091073437,-0.2766887652,-0.1787775501,0.2506064661,-0.0634035103,0.1080948497,0.1082971733,-0.0474415734,0.1845972961,-0.2145972152,-0.0224080099,0.1511759933,-0.1186861096,0.1441773116,0.1281517862,0.2065738514,-0.0993363562,-0.0771083279,0.0608158331,0.1863131545,0.0699075826,-0.3469008321,0.3065704385,-0.3553435677,-0.0419794558,0.2077702803,0.2389249902,-0.142942956,-0.185098241,-0.346268729,-0.3301590799,-0.3395736634,-0.0441612575,-0.1176238732,-0.2292595687,0.1380905684,0.2403941535,-0.3358725004,0.2748928681,0.0507576992,0.2549126717,0.1540716395,-0.1775613193,-0.1391795581,0.2148018452,0.2480359799,0.1219776625,-0.0535865952,-0.0253302833,-0.3330512893,0.2070830176,-0.0252552824,-0.1999769237,-0.0534007849,-0.3134470065,0.2493420859,0.1236158731,0.1729382797,0.1111917755,-0.3468786248,0.1279920926,-0.2394866267,-0.1574392741,0.2230204463,0.0037212314,0.114420387,0.0264102097,-0.2081708772,-0.1688977745,0.2739514521,0.1155889324,-0.3950433149,0.2660121654,0.0683444473,-0.0394947071,0.0129129408,0.0530853641,-0.2689590194,-0.3119833216,0.0084351501,0.1440611966,-0.0447829652,-0.0680607983,-0.1216425574,-0.2087363062,0.0045706808,0.2346719217,-0.2287888588,-0.2693620267,-0.1205034686,0.1310397012,0.0551842616,-0.3997752503,-0.3239697398,-0.3554056766,0.0262195937,-0.0264162403,0.2217871121,-0.020531965,-0.1196427396,0.1682578064,-0.1078435232,0.158506996,-0.2033738632,-0.3595821184,-0.2068866086,0.334532641,-0.21517475,0.1780367061,-0.1100490539,-0.1531924839,-0.207126118,0.3152757018,-0.2622830059,-0.341741398,-0.0584619813,0.2455586933,0.0611058243,0.2098383668,0.1714031052,-0.186343666,0.0142212684,0.0090931658,0.0568595852,-0.3570974107,-0.2176777493,-0.227499246,-0.2785896816,0.2827136845,-0.2737821105,-0.2541599552,-0.2978085342,-0.2029717468,-0.1611827417,0.0350508585,-0.1006360976,0.1859409863,0.2711331165,-0.0932992995,0.2347411057,-0.0939884398,-0.2906243797,-0.1046237111,0.2620036208,-0.1719008901,-0.1927866494,0.1494918971,0.0282717332,0.0944596913,-0.0236061496,0.1749183908,-0.2962736825,0.0747751437,-0.0846426961,-0.3851055589,0.06601178,0.1307013972,-0.2425684209,-0.0632767893,-0.3822877732,-0.1143701546,0.1721664692,-0.3326767094,0.2105251,-0.3448348071,-0.2108840717,-0.0747325908,-0.2712470153,-0.2199076795,-0.0256330091,-0.1845817789,-0.0430327486,0.3640618881,-0.0343334676,-0.3870007957,0.2293735574,0.1595249282,0.1042234859,0.0394459291,0.1103125082,-0.0709671016,0.2297015283,-0.1877736284,0.0692732105,-0.1648804565,-0.101444617,-0.0015049315,0.2674191868,0.2984680373,0.2616793538,0.2990917501,-0.3774673545,-0.3252184502,0.0171332296,0.2716171266,-0.2113384618,0.0560969001,-0.3390834361,-0.140350159,-0.2400281518,-0.3258671802,-0.0944301636,-0.2636521847,-0.2515360377,-0.0539986404,-0.2539851521,0.2534489878,-0.0746386071,0.1278044366,-0.0214565888,-0.0917113238,0.0107175835,0.202714578,-0.0199761323,0.2103159215,0.2761141186,-0.3839929001,0.2300550659,-0.2599528393,-0.0633714165,-0.1150155252,-0.0155909012,-0.372666459,-0.3716024223,0.1995284198,-0.0221238141,0.0472609496,0.1006127155,-0.0046811763,-0.3712972141,0.0693144889,-0.2422747721,0.0918367085,0.1160586863,-0.3425479235,-0.3889530069,0.1187083287,0.2052688471,0.1407646628,-0.2269717663,0.0096250878,0.2727866104,-0.051281948,0.1714722803,-0.0277427432,-0.1774535107,0.0288910109,-0.1025060391,0.1105144156,0.3401728437,0.1418807694,-0.2701440556,-0.3645925252,0.2280470213,-0.1588007805,0.1596443848,0.1107157412,-0.3366424096,-0.3838892683,0.1339935894,0.1532133759,0.3739521267,-0.2810001595,0.2904202518,-0.3635803827,-0.0060707725,0.242215052,-0.2324610357,-0.2573115361,0.0411305633,-0.2032671989,0.1210978313,0.0752259305,-0.0974276398,0.0361385823,0.3042120608,0.2170526789,-0.1456004464,0.2232616314,-0.3545375225,-0.2340608746,-0.0747416696,-0.1340607546,-0.0717636039,-0.0312508918,0.0485757012,-0.0833622331,-0.3722756258,0.0374997976,-0.3739743909,0.3024655277,-0.3953243073,-0.1971209869,0.2833278047,-0.0898473618,-0.1239452648,-0.1726440873,0.1779114206,0.0563242114,0.3479526679,-0.13447494,0.2987350007,0.1297737795,0.1506258226,0.0567419306,-0.3945876647,0.2374466014,0.1256920099,-0.1760820295,-0.2589966216,-0.2975722698,0.1005163517,0.0984413661,-0.1555499154,-0.3899618561,0.1888170713,-0.3348362543,0.1586540358,-0.3417775703,-0.3880323335,0.1835712191,-0.2917346792,0.1079214882,-0.3089166102,-0.2428832528,0.2570169594,-0.0992081269,-0.3029891008,-0.097969351,-0.3377022942,-0.0781231421,-0.1745186176,-0.1334800627,0.1950512978,-0.3254593982,0.2394180709,0.1885446707,-0.0840226889,0.3568999429,-0.1227844694,-0.3255218831,-0.1999441848,-0.0540453035,0.2979637562,-0.0862107021,-0.2139564248,0.2476381959,-0.3126880387,0.3120355933,0.2249988226,-0.3608666507,-0.3826002384,-0.1669149257,0.0662060008,-0.2118662783,-0.2370016807,-0.3371829995,-0.0896947984,-0.0929181604,0.0707168145,0.3015980974,0.1608009908,0.1222527709,0.2230625853,0.1423346786,0.1769369756,-0.2220188137,0.1938194384,0.2914096902,0.0987012243,0.1646627155,0.1918759602,0.2054457794,-0.3703970046,-0.1455547246,-0.0194855093,0.0538306632,0.1332292679,-0.3651691098,-0.0256124582,-0.2284119036,0.1343193673,-0.0313145037,-0.1321742621,-0.3065724109,-0.2634443197,0.1378693787,-0.2780668684,0.1882420226,0.132317758,0.2708953107,0.2929847387,-0.0570712526,0.0372723968,-0.1369729987,0.3543960178,-0.1554921727,0.2677195602,0.0828214298,-0.1217805531,-0.2404372272,0.0892705578,-0.2066389167,-0.1970545322,-0.0904975806,0.0566402845,-0.1180514893,-0.1973659421,-0.2403930642,-0.0102704155,-0.3245172476,-0.2589753021,0.2402365701,0.2430090813,-0.0340305425,-0.0334447791,0.2013793916,-0.2832747437,0.1171702625,-0.7111103136,0.2452366883,-0.0742660552,-0.3185246703,-0.3651090299,0.0726286029,-0.2599013382,-0.2505234404,0.1329848319,-0.3376688853,-0.3882055436,0.2509816087,0.087587796,-0.1170981802,-0.1784581935,-0.002532003,0.0626054544,-0.230168528,-0.2532897336,-0.0833237892,0.1182645962,-0.067064521,0.0550179466,0.2154944269,0.3053860416,-0.1653323852,0.2079291384,0.1146315787,-0.0596012633,-0.0122421282,-0.0729042649,0.0111116864,0.2475344867,0.2735246688,0.0738041468,-0.1516001366,-0.0496978114,-0.2916583742,0.3176445933,-0.2076908149,-0.3006624279,-0.3577074354,0.0193216698,0.0077336254,0.3199248141,-0.1140295199,-0.2172825472,0.2000959079,0.2282570351,0.2291676489,-0.2997131063,0.2132910545,-0.1171753793,-0.3083567617,-0.0166242273,0.1794005595,-0.1329707009,-0.2490220755,0.0709603493,-0.0559985603,-0.0793064661,0.1832191443,0.1811696165,0.2960654138,0.218559464,0.1475190419,0.3053629584,0.2664696519,-0.2174207244,-0.0779234728,-0.0875689397,-0.1269029455,-0.013464586,-0.005360018,-0.1174829276,-0.2209378667,-0.2322367004,0.0985611169,-0.1126465989,0.0258224315,0.0198270278,-0.2996591196,0.1120040855,0.0360616323,-0.2139381983,-0.2549922705,-0.1712379484,-0.393107986,0.2499059803,-0.3793907478,-0.2818545519,-0.3641496619,0.1814726838,-0.2204714278,0.243028264,-0.1904147594,-0.2206451807,0.0295513006,0.0901418637,-0.0066065525,-0.2151492248,-0.3205742468,-0.0190622334,0.0311540291,-0.1046010205,-0.2583147948,-0.1429258006,-0.1709642159,-0.2526690087,-0.3377387232,0.076853678,0.1066788448,-0.0257775936,0.0121826075,-0.2594137341,-0.1415143277,0.1167421733,0.2693335893,0.2387178343,-0.2791834634,-0.1852401795,0.171810637,-0.3444208967,-0.2912947316,-0.3075493901,0.159154668,0.0770395919,-0.2896131928,0.2851383625,-0.0007251153,-0.1420229043,-0.254826737,-0.0459642268,0.3022021922,-0.1931978996,0.2460485793,-0.1980323503,-0.3423640884,-0.0660070967,-0.3771923156,0.0334401829,0.2645973208,-0.1848472382,-0.3078105263,-0.0559033199,-0.1995408912,0.0288683505,-0.0071906372,-0.061195836,-0.2812076317,-0.2780986109,-0.3630823822,0.1740333237,0.2139096299,0.0604311157,0.146239724,0.0665411299,0.2250999137,-0.0630060934,0.2257961337,-0.1138574197,-0.0100995199,-0.0056079127,0.2818084474,-0.1767880984,-0.3494847419,0.1387058366,-0.1838970285,-0.3269703742,-0.0631579419,-0.2247189893,-0.366576497,0.3695334821,-0.1994585335,-0.1637752319,0.0724580975,0.0344248439,-0.3342885953,-0.0428820237,0.205600685,-0.2410854081,0.1716974125,-0.3659291092,-0.3083964132,-0.1237754957,-0.2300424317,0.0362591452,-0.3449815943,0.3106134023,-0.1974598512,0.2418998768,-0.2110722065,0.3132452029,-0.3570374674,0.2022019126,0.139046606,-0.0689884675,-0.1862000553,-0.2272977292,0.2119913596,-0.161171598,0.006517963,-0.186024815,0.3182418991,0.2560122593,-0.1505371173,-0.0309614193,0.210543531,0.2062067852,-0.1964079656,-0.2006115355,-0.1987444484,0.2329967554,0.0421819228,-0.2296519673,-0.1814036892,0.2723338079,-0.2724598195,-0.2366673033,0.1798293791,0.3725198986,0.0934619182,0.0904156875,-0.1458993954,-0.1967066025,-0.0041674792,0.2526317797,0.0333781533,-0.188192018,0.1814803317,0.048433918,-0.0462138895,0.2968815423,0.0516382159,-0.0701606364,-0.2664917619,0.1393824886,-0.0176956188,0.0512440926,-0.1405564118,-0.1378539446,-0.0907002357,-0.1711434529,-0.1664352901,0.1001860551,0.1969972664,-0.2377009856,-0.2188030742,0.256454823,-0.0229473572,0.0142974001,0.1216957339,0.131766106,-0.3041283517,-0.1759970583,-0.2639104938,-0.1113068978,0.3828234339,0.0111272375,-0.0352054823,-0.1144102874,-0.2220593894,0.2621661843,-0.2619616058,-0.1646625002,-0.2484055113,0.1612461616,-0.2223007536,-0.3010343153,0.1151648597,-0.166640489,-0.3731061949,0.2449948812,-0.046605298,0.3612100048,-0.2561726539,-0.2784552008,0.2211391943,-0.0232772576,-0.0504923961,-0.0185937191,0.3273396272,-0.0278635497,-0.1383161852,-0.1732077592,0.1528111105,-0.1077353322,0.322977913,0.0375956802,-0.0437367885,0.2559737867,0.1757618878,-0.3655742904,-0.0254320008,0.0794604266,0.1794183154,-0.162777975,0.1217276366,0.2741482392,-0.3515882936,-0.2336202944,0.003512446,-0.3815903465,0.1647793351,0.1824999555,-0.2163278687,0.2771138806,-0.2715172807,-0.122620615,-0.2004716734,-0.0994788302,-0.192228466,0.0837645818,0.2731999288,-0.3230139745,-0.2993298747,-0.3420536008,-0.2906912715,0.1148269212,0.1096718921,0.2420732999,-0.1219320126,0.1086664553,-0.2207321849,-0.0353059236,-0.0625507082,-0.0258416022,0.0889503093,-0.336940499,-0.0937168766,0.0430225675,-0.0084669324,0.2522435997,-0.0744020726,0.1035140144,-0.1788506418,0.315050702,0.2803276651,-0.3219753179,0.0876839051,0.2262301409,0.0277478076,-0.0837089405,-0.1667408184,-0.232471414,-0.2215106073,0.1966909342,-0.0176206446,0.1669003919,0.1676794608,-0.2604223189,-0.0119543291,0.2638803688,-0.0457109429,-0.0565614332,-0.0982900649,0.0709491768,0.000416837,0.3104376277,0.189753878,-0.1866160043,-0.2484978794,-0.1161520385,0.0363511783,-0.1304275698,-0.2129636382,0.0566674951,-0.2864466601,0.0096862248,-0.3684845298,-0.3391533768,-0.2091151706,-0.3276763587,0.0033116599,0.1474482855,0.2385318977,-0.285360913,0.2071742359,-0.1276801754,0.104585011,0.0548701697,-0.2832958608,-0.1879361721,0.2907085647,-0.320698572,0.0249666229,-0.2778335991,-0.2938600659,-0.1226257184,0.0747561905,-0.2515456618,0.2225492808,-0.1692596633,-0.2484106517,-0.1855375874,-0.2067053736,0.1276267284,0.115036576,-0.2426966401,-0.1880861125,0.1613863144,0.1395389107,0.1350535489,0.0722945616,0.1102577354,-0.3490046017,-0.2513392232,-0.219273676,0.2919482198,0.021170129,0.0987363487,0.2655410355,0.1835918604,0.3224943884,0.1119421055,0.3526996865,-0.1625744738,-0.2517838046,0.2390572661,0.1934012443,-0.0689426109,-0.2669388653,-0.234754756,0.2195576313,-0.0545174427,-0.3112044466,-0.3650823371,-0.3337539864,-0.2066781714,0.2296339635,-0.18627944,0.3286292088,-0.3505016132,-0.1997088505,-0.2347894591,-0.0511366302,0.2585304535,-0.0308501784,0.2463930783,-0.2453932431,-0.2953038511,0.0867957067,-0.3102220147,-0.1151509872,0.277483806,-0.2011080686,-0.3086888043,-0.1929112253,0.3114655529,-0.109111385,-0.1022952432,-0.0147875318,0.0947064433,0.0761881672,-0.2643349255,0.3777455262,0.1756236109,-0.2930277723,-0.248873463,0.0107475006,0.002144417,0.0915013024,0.0103632639,0.0519501527,0.0940649929,-0.1575677356,0.2552021526,-0.0520062275,0.3069199976,0.2870257633,-0.2878719894,0.2961618003,0.0087777396,-0.011760098,0.0076329578,-0.0221090704,-0.2803846984,-0.010439326,-0.3313948953,-0.2017830066,-0.1106753544,0.0053778808,0.0050462253,0.221430821,0.0041227165,-0.2801519441,0.2894716504,-0.3375679017,0.0397429818,-0.2758531354,0.2765932646,-0.1209705903,-0.3573744476,-0.2797885102,-0.0579307226,-0.0442825868,0.3330985236,-0.1213638946,-0.299978122,-0.2318538123,-0.2494721335,-0.0588676252,-0.1508252195,-0.0824613733,0.2887047923,-0.1038196657,0.2127300785,-0.283171407,-0.2127126513,-0.0346522095,-0.2965578962,0.0998275013,-0.0029185934,-0.1883654499,0.0230753096,-0.0545641523,-0.2180683111,0.0384881112,0.3143536912,-0.1963940454,-0.3658656978,0.0911251931,0.1391475699,-0.1214710691,0.2166927359,-0.0420516364,0.3104490739,0.1304467218,-0.2026740444,-0.0704508898,-0.2578734355,-0.2295892969,0.1946072848,0.0515247556,-0.1627112847,-0.1787564574,0.1573742436,-0.1973600684,0.2289536577,-0.2950319863,0.2266739404,0.3029994063,-0.0598893794,0.3046068844,-0.2363988254,0.0490721007,0.0247392467,-0.0598834902,-0.0816327581,-0.1753465607,-0.0682554335,-0.3505638978,-0.3361505539,0.2930882584,-0.0987854323,-0.2693568477,0.1563184924,0.0073471333,-0.3544256408,0.0175124589,0.1132876277,-0.1379305034,-0.3044518407,-0.3445624022,0.0246995806,-0.0722489743,0.2659572146,0.1928053618,-0.3545002394,0.2798022587,-0.0189575749,0.2604905108,-0.0195086603,0.2805402427,-0.1174837659,0.0829094476,-0.1704234184,0.0486050103,-0.2296269734,-0.0489025394,-0.1082649629,-0.2811861891,0.241638514,-0.0893242789,-0.1002076574,-0.270913455,-0.0243706302,-0.2964798157,-0.0164123359,0.0636270383,0.1730248474,-0.2086083695,0.1984636548,-0.0243571702,0.2669220492,0.1749396685,-0.3282764128,-0.3564438177,0.1501347492,0.0563378926,0.1261763866,0.2651656411,-0.0011604369,0.2215945656,-0.2791611133,-0.0409325293,-0.2498336451,0.2488543998,-0.1868097235,-0.2756047198,-0.2687789254,-0.0840096716,-0.3183368174,-0.0599684595,-0.0553296968,-0.0675213759,-0.3234424253,-0.3080508567,-0.3276649988,-0.2324095103,-0.1237664454,-0.0592388758,-0.0084170829,-0.2354270458,0.0236035663,-0.0882988479,0.0996450192,0.0181310629,0.1905862583,-0.1244122138,-0.2363877112,0.3108118699,-0.2554069966,-0.0730317818,0.1370586166,-0.0257480461,-0.1773404004,-0.0843766245,0.0384392766,0.0285430659,0.2672451215,0.0800521786,-0.0720187141,-0.2953899918,0.2229287362,0.0501670946,0.2000785717,-0.3700939642,0.2086169988,-0.3316895662,-0.2819466647,-0.1262201443,0.1617909174,0.3186475105,0.0554201339,0.2188235444,0.1346359127,-0.0998411965,0.1274767271,-0.3725009395,0.292779113,-0.092074231,0.2593826326,0.143800726,0.094051251,0.2352471957,-0.066658954,-0.107754107,0.2735222275,0.3017827528,-0.0925305082,0.0438679399,0.2841458199,0.2061584648,-0.1486352202,0.2195349881,-0.0048339931,0.0738287797,-0.0169920788,0.1034122421,-0.1394550507,0.0406129118,0.3722674232,-0.1466415612,-0.0225585892,0.2054129132,0.0324316662,-0.2437914895,-0.0347014458,-0.0864391842,0.0519347989,0.2621725547,-0.148428663,-0.2320122636,0.3201723376,0.0483511807,0.291370636,0.2214713753,-0.2212133313,-0.1023747668,0.0332655953,0.0237081519,-0.2833494127,0.2498408355,-0.0161006905,0.2125851023,-0.1267778901,0.1410410641,-0.1141812753,-0.3230242007,0.1875851659,-0.2553489591,0.2401111581,-0.2473194132,-0.0388051727,-0.377260558,0.3358722039,0.3258460738,0.1335510271,0.2567304197,0.0170164407,0.3887213434,0.0404406824,0.2954093656,-0.1639584359,0.0932986311,-0.3336605119,-0.1249947623,0.3253189248,0.1881705307,0.2152533091,-0.2313326106,-0.0339200058,-0.3672300258,-0.1149935663,-0.0691795357,-0.1688632883,0.2307971606,-0.0429971961,0.1263633002,-0.2012833761,-0.2031077692,0.0127862736,0.0167639871,-0.2642238888,0.0671840391,-0.1006824396,0.1061497379,0.0655690939,-0.1198242374,-0.3382757891,0.1454682601,-0.1940640882,0.2979215066,0.0825676519,-0.0920229864,0.2853159759,0.2929359348,-0.1330237842,-0.1302529095,-0.1700986207,-0.3224120503,-0.1671109725,0.3415140848,0.1851101403,-0.2961655315,-0.3893205025,-0.3069098943,-0.2889397335,0.1600585889,0.0516755414,-0.3874480799,0.3149424965,0.0276776977,-0.2563158349,-0.2061299385,-0.0087598139,0.1617225333,0.1217738567,0.1443355649,0.1860011295,0.1855758997,0.225292656,0.3230577878,0.2924980283,0.1679223456,-0.3180779265,-0.3417663677,-0.2472155624,-0.2618841361,0.1402135107,0.2247682882,0.064762788,0.2168311931,0.0558053633,-0.3373225203,0.1517187118,-0.0792375967,0.2236887267,0.1965620907,-0.3089920023,0.0371145631,-0.3359106545,-0.2712572494,-0.0735234156,-0.20267614,-0.0738043443,0.2005608734,-0.2272599295,0.1705630525,-0.2113467526,0.0146585011,0.0131728397,0.0877695513,-0.3027898084,-0.1976610447,0.2546881745,0.0607038901,0.2046603444,-0.0547991835,0.2988051081,0.3687809193,-0.0034118949,-0.2228336072,0.2320568551,-0.2334934561,-0.2839333957,0.1719398346,0.1225278137,-0.066904328,0.0212669933,0.2907010775,0.2712451769,0.0713692152,0.1213355026,0.1233724424,0.1897350102,-0.1899267502,0.3036345545,-0.0866613848,-0.2503655514,-0.0337492074,-0.0830971708,0.1560599276,-0.0221095525,-0.0509974722,-0.2997235797,0.1390801555,0.0518993312,-0.1852677826,0.2187561074,0.3231138558,0.3119311507,0.0212262263,-0.292758329,0.0759635949,0.3657679778,0.1513057312,0.2179862497,-0.3332777271,-0.0106507131,-0.3858156465,0.0748913458,-0.3406008468,-0.2708646676,0.2995684032,0.0026330271,-0.111944416,0.1393554265,-0.1733955655,0.3230183333,-0.3453460976,0.0242749971,0.0295775946,-0.3065072038,-0.1782577104,0.1271551994,0.2599388023,0.2968853225,0.2626025855,-0.3696493646,0.2345986758,0.0285597071,-0.0358801872,-0.0415243169,-0.2358512665,-0.3400095867,-0.1260384434,-0.3195691551,-0.2835378086,-0.1390541346,0.1008969904,-0.2924359342,0.1238038545,0.2038131656,0.1580124115,0.130598364,-0.2305155707,-0.2023255782,-0.1720201997,0.1908131108,-0.025975099,0.0605978314,-0.0524191275,-0.09690842,0.2821773814,-0.0608532275,-0.0580258751,0.1940834464,-0.348746718,0.126342133,-0.3265830452,-0.3616955914,-0.2952147362,-0.0144433548,-0.1814198202,-0.1872727257,-0.1154285346,-0.0643551651,-0.0097579747,0.0952320183,-0.3034338718,-0.2735009249,-0.2535218873,0.1856810138,0.3085640037,0.1632149662,0.3106491042,-0.2616014055,-0.1136738997,-0.3118592008,0.1024094547,-0.229153279,0.2155813425,-0.1248497991,-0.3184838338,-0.0530830555,-0.2471899318,0.2521299833,-0.0347695561,0.3552120129,0.2143865857,0.0046333114,-0.1924070696,0.0370901771,0.0208186759,0.2214583278,0.189004087,-0.2245707217,-0.3257770009,-0.2462120804,0.1624936917,-0.2741862523,0.0457168396,-0.3176450673,0.165817671,-0.3157402017,0.296142115,0.1893471829,-0.1981591218,-0.0051841661,0.3126038141,0.184285447,0.0346973063,0.1818159036,-0.2593147966,0.2563345498,-0.1787976233,-0.2754344731,-0.0123930722,-0.0404059962,-0.3685888152,0.3055513298,0.1818538388,-0.1497257245,0.1189953224,0.0693673724,-0.1165867591,0.3062206569,-0.3497189312,0.0963124636,-0.1646666224,-0.1995350827,0.0365345314,-0.148479525,-0.1436983549,-0.2984711556,0.0629112701,0.2185246749,-0.362628179,-0.3075832967,0.02941023,0.0488384227,-0.0288696706,0.0694076143,-0.3403856234,-0.1841294361,-0.1394631176,-0.0097595622,0.207109309,-0.1676582504,0.1641224856,0.0975847996,-0.3407109416,-0.1778670319,-0.3180711348,0.2676812931,-0.3566744283,0.3426382533,0.3010572289,0.1285426335,-0.2690163711,-0.0664170951,0.2488689877,-0.151186853,-0.0521866341,0.2233031474,-0.1217954742,0.1529409808,0.1248989833,0.0334099745,-0.190787471,-0.2961183832,-0.2699827034,0.2624667223,-0.2057090599,0.1625395904,-0.0734134018,-0.1132822293,0.1463733843,0.2482753549,0.0820514369,-0.1309052264,0.1830970052,0.1210784116,-0.3026402306,-0.345058023,-0.1550555602,-0.3481742527,0.2529856687,-0.17429458,-0.2284096833,0.1868005571,-0.025482668,0.183327973,0.0053530663,-0.2085743405,-0.2071621138,0.3000877452,-0.3352479852,0.0849227578,-0.3425872286,0.2911903195,-0.0682625138,0.074737347,0.1730800154,0.0615559857,0.0765131176,0.0540260786,0.299544809,-0.193341863,-0.0585852279,0.2514679491,0.2005986956,-0.0076764922,0.0767404029,0.2969117166,0.0675445455,0.2621069062,0.2300855999,0.0809964639,0.0741311404,-0.1981888614,-0.1110362113,-0.2901116471,0.2193212519,0.2855274787,0.2207848373,-0.0008415577,-0.25436378,-0.0201014332,-0.1263577734,-0.0000447357,-0.263280058,0.1386121903,0.2930574634,0.1764336899,0.2811905838,-0.3661244583,0.0107209902,-0.2592768883,-0.1712940947,0.1800795483,-0.3143745647,0.2291333458,0.22645821,0.1836869191,-0.2367235084,-0.1014527976,-0.0091621515,0.1726367233,0.1371454638,0.1726425536,0.0083169585,0.1910735945,0.2191888402,0.107196353,0.1653806437,-0.2969172333,0.009705525,-0.3017375956,0.1903522288,-0.2889635741,-0.3080541286,-0.1039380771,0.2077434545,0.2116894576,-0.1495837066,0.2965798907,0.1298637014,0.2845231089,-0.1177889813,0.1413595462,-0.0866846094,-0.3269066947,-0.3324260349,-0.3065852087,0.2752905501,-0.0265854533,-0.0062722046,-0.3103380995,-0.1946564582,-0.1044118408,0.2932670107,-0.1891614327,0.2814429867,-0.256910492,0.0085061238,0.0542999431,-0.0621248123,-0.0751591103,-0.1949145256,0.0554067706,0.3449476975,0.2249362152,0.2069836024,-0.1083856822,-0.1953680113,-0.1701523236,0.1085618611,0.1819317281,-0.3727419588,0.0628508648,0.0337338771,0.2153426715,-0.348179688,0.2347858738,-0.0310507114,-0.3650129579,-0.2826120203,-0.0271685799,-0.3429946095,0.0214991074,0.2162237124,-0.1271382639,0.1629330073,0.0929693174,0.2249545964,-0.1256239733,0.3068513068,0.0862222631,-0.0798440763,0.2948673262,0.061215838,-0.1281697013,-0.263835344,0.1501933744,0.0957733956,-0.2183897823,-0.0575333348,0.0366410839,0.1933252791,0.0414463678,-0.3250936176,0.1694240277,0.0079730996,-0.3488620269,0.1355367301,-0.1529796556,0.0618794323,-0.3617184235,-0.3760014525,0.0643236453,-0.292493221,0.1477962916,-0.2143764011,0.2684270897,-0.3416806002,0.0169801793,0.2037350055,0.2203862804,0.0073982449,-0.2586126721,-0.3742057444,0.0962367959,0.1724112945,-0.3245107855,-0.1396740448,0.3321286652,0.0200288598,-0.0768212501,-0.1170064377,0.1192434967,0.0909458389,-0.1617111241,-0.1202398114,0.2731634598,-0.0331521846,0.3015322483,0.0104081179,0.3367197533,0.39461067,0.3724437527,0.3317093072,-0.3522179272,0.2511793628,-0.0611013987,-0.3076484575,-0.0269086678,-0.2991065653,0.3416095192,0.2496850167,0.0063557564,-0.1308896114,0.2881803866,-0.2850502545,-0.0506884604,-0.3237683852,0.0270179735,-0.0476300823,-0.3296549685,0.0650860252,0.1074644306,0.2761131753,-0.0668262136,0.2213894102,-0.0317405907
   -0.3296878217,0.2401528397,0.0006244407,0.238854793,-0.5226288164,0.0580599244,-0.2690384512,0.3248533477,0.1275320584,0.1573790421,-0.0096969345,-0.288956037,-0.1578237269,0.3484294412,-0.0729007818,-0.288721519,0.3632042214,0.2356287097,0.1548793802,0.3113666896,0.2902638319,0.0529357082,-0.2037888098,0.2845236334,0.270464125,-0.1921911312,0.2702108054,0.336141453,-0.3655207613,-0.3842783543,0.2248365318,0.2046859828,-0.2547474663,-0.0239234584,0.0891923907,-0.1223184913,-0.2656551319,0.1414679482,0.2694794897,-0.2822450384,0.1712227405,0.1539852346,0.1560449111,0.1452253094,-0.1369542695,0.0386940528,-0.2711169817,-0.0948739984,-0.23434739,-0.2092396834,0.0420526162,0.0955706539,-0.0545171458,0.1106853512,0.3557420821,0.025986422,-0.0213771604,-0.0532474028,-0.1270071294,0.262164215,0.2562761051,0.1175042063,0.308766689,-0.1396048008,-0.2813161935,0.3038245815,-0.3353721436,0.2889791901,0.368882299,0.0013518129,-0.0778170717,-0.1998129451,-0.1322680507,0.0000908152,0.1179160123,0.4483294343,0.0097725959,-0.0518224037,-0.0228043109,0.0671505755,-0.2340376175,0.2613960302,-0.3493777854,0.0116824779,0.0730593013,0.333279585,-0.1195787572,0.1039386514,0.3236846942,-0.3346751932,0.3422924382,-0.1458621763,-0.2569288562,-0.1022424246,0.2881695584,0.3644606175,-0.4098955214,-0.3687828631,-0.0362236676,-0.3471397454,0.0974502886,0.2016783973,-0.1949892042,-0.2364869895,-0.1144190485,0.1517550624,0.3111279537,0.5620010422,0.0915438132,-0.1382179518,0.0625390188,-0.0450890519,0.0655341997,0.0998117656,0.1241199256,-0.2499264922,-0.0089161374,-0.1911012209,-0.0348669345,0.1722824029,-0.2003784534,-0.0993785497,-0.1173120165,0.2488880575,-0.228861473,0.1243544548,0.3307140059,-0.328049355,-0.2690669261,-0.0887205925,-0.3289458851,-0.0675463279,0.2497987175,0.3732519519,-0.2441037467,0.294123996,-0.3314291722,-0.0059517851,-0.1690415934,0.1758359889,0.2309974978,-0.087854882,0.3194199725,-0.0999387777,0.1449909737,-0.225925846,-0.0208236634,0.0510240852,0.3453901412,-0.2994424919,-0.1627389368,0.196672928,-0.2551629595,0.3410263869,-0.3630369764,-0.2224086882,-0.2199884533,0.1128680188,-0.0553066333,0.2464180494,0.0763505357,0.0554846803,-0.2666669723,0.0334938073,0.3194390559,0.1191523371,-0.2326462354,0.0958128673,0.060830843,-0.1478484731,0.058333234,-0.1427179341,-0.3383111777,0.2860036339,-0.0653081114,0.3273487789,0.2688913839,-0.2710391836,-0.2254187105,0.0959577648,0.0452537211,0.1290354737,-0.3565698526,-0.3368123113,0.5203114837,0.0514949982,0.334254637,-0.2097777183,0.0480155228,0.1733438338,-0.0804662031,-0.2535998509,0.0206300488,-0.1940749926,0.4240181856,-0.2236003856,-0.1757323083,0.3199639064,-0.1249811181,-0.0780195433,-0.3130735547,-0.374483053,0.0045497662,-0.0094386238,0.0046012883,-0.2047270698,-0.4110118646,-0.1860467984,-0.1981783648,0.0552360913,-0.3912577569,0.34489074,-0.2338990245,0.0480206071,-0.2184270639,0.0256661833,-0.240034555,0.0010889968,-0.2408110392,0.0905741922,-0.2950082286,-0.209101552,0.0274389753,-0.1004807906,0.1761373187,-0.1724764472,0.138830241,-0.3092562997,-0.2758408395,0.0953666209,0.2716768596,-0.2240193079,-0.2072307494,0.1117299396,-0.0171072009,0.1858268799,-0.3543947429,0.2572246621,-0.3040439246,-0.1509052133,0.3120789192,-0.2978429302,0.2671935724,-0.2284771205,-0.2477898605,-0.0274907024,-0.1113527946,-0.3440222138,-0.0717778715,-0.3581351174,0.2363423089,0.0208541305,-0.2812532117,0.1826786433,-0.2945337449,-0.4350097874,0.3285888441,-0.2272363366,0.0679050631,-0.1029242107,-0.2086435253,0.3043756388,0.1983141837,-0.1189652738,-0.6532060784,0.1462005853,-0.2889125276,-0.1984481736,-0.2148365436,0.3730768803,-0.3267361244,-0.1399967316,0.0956972003,-0.0903195906,0.1314861889,-0.1234120342,0.0236445609,-0.2772410889,-0.0483682479,-0.1487327269,-0.0202795442,0.3444263467,-0.2594919013,0.3221965258,0.1314808067,-0.2103934714,-0.3280190391,-0.144977056,-0.4649696416,-0.313847933,0.1438735441,0.0818062224,0.2230860332,0.2286439964,-0.3633191758,-0.075376886,-0.0130847574,0.3591433708,0.3750584192,0.3075484199,0.123237638,0.0765714168,0.0401346249,-0.2420363827,-0.1271785711,0.0962459514,-0.0483799439,-0.2616915847,0.0389578059,-0.2910561051,-0.0471307593,0.2229894967,0.0675476022,-0.0603100442,0.1923997178,-0.14749556,-0.0498696677,0.1376111439,-0.1674508025,-0.3398032463,-0.0009765162,-0.2975301614,0.3390067443,-0.048567774,-0.0294097272,0.1257201654,-0.3174883778,0.0717615043,-0.1254191206,0.0431845336,-0.3719171546,0.1518628983,0.2309234061,-0.2936186779,0.0020330088,0.0190703284,-0.1995107594,0.033948291,0.1835039919,-0.1915513809,0.2678845369,0.3343403221,-0.2726160417,-0.3522041499,0.0007108774,-0.1063462725,0.1516654364,-0.2527773255,0.1560918225,-0.0661865104,0.3087331019,0.2735862877,-0.3661624698,0.2017506888,-0.1766935577,0.0224958726,0.19713813,-0.819078938,-0.1438438799,-0.3279465668,0.3259443926,0.2330297722,-0.0882578924,-0.0036865171,-0.1047973789,0.1948164941,0.0293549578,-0.1301067511,-0.1834871917,-0.1988435637,-0.2879275478,-0.1541124477,0.0377809718,0.0653815942,0.2562477877,0.2430726477,0.2168246456,0.0631290836,0.1586839679,-0.2938996795,0.1909067498,0.1303923231,0.3113176772,-0.015481225,-0.3529112018,-0.2862938562,-0.2313428581,0.3383970454,-0.3447198845,-0.0388230723,-0.0381942216,-0.067546436,-0.2691080563,0.0318772073,0.164141985,0.2970558879,0.0690804552,-0.0663911753,0.2524897661,-0.0618331764,-0.1370042521,0.1616158592,0.176825506,-0.0641505938,0.2975482867,-0.2206219486,-0.1647781294,-0.284626854,-0.2456991232,0.2108466626,-0.1789470771,-0.0512207735,-0.1689043783,0.2873815031,-0.1281534612,0.3597356473,-0.2172003707,-0.0541022059,-0.3467338834,-0.0470756413,0.1202890031,-0.0722334127,0.012764302,0.1124361608,-0.2532308938,0.345596796,-0.0068631586,-0.2079021308,0.1629335947,0.1862678342,0.1318659424,0.1660001076,-0.2266198131,0.1092849749,0.1277482643,-0.2510970463,-0.2978725864,-0.2015707363,0.249177196,-0.2726967266,0.3235676961,-0.2740720695,-0.1793484216,0.0012309549,-0.2826241611,0.2929571755,-0.1374808866,-0.028900758,0.1839575219,-0.246431529,-0.1446230018,0.1083284574,0.1356088377,0.0823630203,-0.0191472968,0.1649875879,0.1150223266,-0.1797680478,0.0172145727,-0.1947918299,-0.1468060263,0.3515976195,0.2338401148,-0.2723265113,-0.1400649827,0.2210906217,-0.2747072389,0.1463940727,-0.282468329,0.2410347809,-0.3614930835,0.0101538615,0.1102536042,-0.013113877,-0.1701692143,0.2320141141,-0.105088193,0.2398313624,-0.15680537,-0.1150975943,0.2247459835,-0.2467373927,-0.0910807304,0.0724987093,-0.2537248426,-0.0209577831,0.1296971955,-0.3377600207,-0.2059283815,-0.2949837765,0.1978913994,0.1512056522,0.2256915958,0.0627481887,0.2112987963,0.0301061802,-0.272582747,0.06785088,0.1535926925,0.2267298978,0.1255746341,-0.2077949559,-0.2784289563,-0.0368074199,0.1242763341,-0.2659410882,-0.0017223298,-0.176055106,0.1362576883,0.138144433,-0.301298278,0.0545415009,-0.2718506133,0.1184364181,0.2591472167,-0.1961601034,0.3107396763,-0.3291235064,0.1804122197,0.0669439068,-0.176187206,0.0110151586,-0.0055185169,0.3245064977,0.1458114364,-0.2879478536,-0.2114528308,0.1012500367,-0.3135753391,0.2591626653,0.1802572196,0.2383529676,0.10681807,-0.3416400532,-0.2303512823,-0.148018336,0.0820136805,-0.1686258274,0.1859245976,-0.0606707597,0.2238848765,0.3302487434,0.1481863716,0.0669616964,0.2550482009,-0.341197146,0.3229194672,-0.3531073652,-0.1046192525,-0.3364992138,-0.0930447063,0.3034866471,-0.147663,-0.3458301915,-0.0204182298,0.1100643648,-0.1669305245,0.2841209857,0.1513852364,-0.0958753732,0.0594250436,-0.1602978821,-0.2391575195,0.0819054898,0.4011863251,0.1678774272,-0.280593588,-0.0940539711,-0.006841036,-0.1223121013,-0.1989287472,-0.2053475702,-0.3283352017,0.0934729001,-0.1964377577,-0.0394932348,-0.2751851053,0.1709963832,-0.1098817224,-0.0946567507,-0.0714492587,-0.1664065286,-0.3005823438,0.1712678038,0.0827701518,0.309863667,0.1192709984,0.2977773795,-0.1356158429,-0.2474834132,0.1257691812,-0.0940812914,-0.2313322217,-0.0362629907,0.2204687255,-0.2825336711,-0.2413152677,0.0088442394,0.1160060546,0.2711925328,0.1050156849,-0.048008083,0.2661472175,-0.0129134652,0.1167098141,-0.2733630564,0.131135978,-0.2461403136,0.278746461,0.0437476961,-0.2304020113,-0.2589042492,-0.3326332547,0.2394444557,0.0842713035,-0.0986115159,0.068551353,-0.1760204053,-0.3718621911,-0.0728666467,0.0240090176,0.282688098,0.1785784408,-0.1687579503,0.0013395658,-0.0886850649,-0.016474104,0.2803088328,-0.1045992546,-0.0145890816,-0.3032054326,0.0569087446,0.3109501046,0.0139507992,0.0436272653,0.2544795694,-0.3424477068,0.2210863451,0.1154190467,-0.1857813278,-0.2589788148,0.1107068984,-0.1775336515,-0.0680753038,0.1669229989,-0.2887267478,-0.1814266091,0.2849394491,0.0032511087,-0.2305457035,-0.0679970008,-0.0624925929,0.2047468361,-0.2094559701,-0.3718866682,0.1316628873,-0.0085298892,0.2699062555,-0.2436073635,-0.2947558301,-0.105382473,-0.3486961545,-0.3457473048,0.0479562827,0.2565965496,0.0973824814,-0.3084448643,-0.1581297575,-0.3284261747,0.1411092609,0.0445994218,0.104848895,0.079264844,0.1392655085,0.0136596981,-0.1479866862,-0.213967528,-0.0788468433,-0.2555769387,-0.2972132652,0.1575115646,-0.086983619,-0.3136595813,-0.2720536126,0.3062325906,-0.1933217602,0.2553446441,0.1261818382,-0.269537259,-0.3822946058,0.1785267305,-0.0680390196,-0.0518827212,-0.3211957536,-0.0241381163,-0.2072703356,0.2462071253,0.35280528,0.2207733685,0.2709833521,-0.3412948481,-0.116296024,0.2316687095,0.2367397516,0.1832406618,-0.0109010194,-0.2839505401,0.0744329876,0.2633851944,-0.2374956431,-0.0620380296,-0.2482792384,0.2796663497,-0.1075778773,-0.2199709795,-0.353231764,-0.343448981,0.1027499306,0.271763954,0.2555050221,0.3512580003,0.0938885311,-0.2932606147,0.2103221907,0.0576727139,-0.0237000426,-0.2765494867,0.2837997169,0.1613920247,0.1172961861,-0.2644207892,-0.1565414121,0.1132780846,0.2252542843,0.2622736686,-0.2581548366,0.0626345138,0.202734081,0.2450674527,0.3046142639,0.0795287058,-0.2819957034,-0.3365286725,0.3065623273,0.0768487848,-0.1856865124,0.0674257855,-0.131701274,0.1677125834,0.2315532666,-0.0234821644,0.223842723,-0.0810283017,0.0256215913,0.2293212245,0.1804121603,0.3177184685,0.0122691194,-0.4677038567,0.0392260684,-0.3109346423,-0.3239289744,0.044353285,-0.2647895376,-0.122700959,-0.1359474449,-0.1481816414,-0.070998572,0.2844521722,-0.1225332696,-0.3714323459,0.1102669507,-0.2406342003,0.3240268427,-0.1346118646,0.0163353818,-0.2986574238,-0.0635660153,-0.3020433028,0.2982606332,-0.0596253581,-0.1129636955,-0.017157519,0.3176798284,0.3379967472,-0.0587563823,-0.2913046872,-0.0819165793,0.0727378003,0.2285840141,-0.3096905856,-0.2477189489,0.0796694905,-0.1037987455,-0.249571936,0.0615087305,0.1042346526,0.2826078452,0.340362855,0.2155383627,0.2095112908,-0.1603925884,-0.1018370028,0.3408504401,0.1354107685,-0.3052808419,0.3072698846,-0.1673013062,0.1409344847,0.0820770504,-0.1544769173,-0.2377666475,0.2011077273,0.2512553004,0.314502324,-0.1154570998,0.1509352113,0.0385686731,0.1037759307,0.0454109108,-0.1824460688,-0.0182487154,0.3027928373,-0.1718592737,-0.0421099911,-0.2375602172,-0.0983895657,0.0373929621,-0.3558742515,-0.3542934893,-0.3429777851,0.2432936007,-0.2349838793,-0.0245129585,-0.0911815357,0.322324799,0.0159699133,0.0354862967,-0.2277803839,0.2568391428,-0.0422992781,0.1429201081,0.1922616683,-0.2426380308,0.1351731585,-0.3369467938,-0.1675214595,-0.3252704979,-0.2751072763,-0.1912475844,-0.0357126874,-0.181208961,-0.3552747623,-0.3414950947,-0.0492981791,0.0557627765,0.0494045804,0.105862106,-0.2177265214,-0.0349997552,0.3163243874,-0.325475469,0.2420806727,-0.3236854889,0.0766249998,0.1868836815,0.2205333288,-0.1297001579,-0.3775682013,-0.0960004312,-0.2839367364,-0.099969919,-0.0115931998,0.1740988665,-0.0290135495,-0.1030706462,0.2226164491,0.208853721,0.1955936986,0.0948374399,-0.2131534651,0.2396936571,-0.2957042887,-0.2648767697,-0.2322883751,0.1797332601,-0.0642904863,0.063583314,-0.3366314916,0.1640602808,-0.3222215324,-0.178869016,-0.1997285191,-0.0779228053,0.2017327063,-0.307235759,0.3764812128,-0.0733354089,-0.0884630909,-0.2734252435,0.2322736883,0.1530164634,-0.1429535427,-0.2236115954,-0.1135471503,-0.1791295761,0.1895312792,-0.1714165771,0.0109290118,-0.3864648497,-0.1647179391,0.135699393,0.3334870095,-0.3452464503,0.169994771,0.0797356721,-0.0943194899,0.2410427316,-0.0666176564,0.259246035,0.1562990702,-0.0052116165,0.3193320273,0.014172193,-0.1700910349,0.0116820426,-0.2019176724,-0.2812599685,-0.3120606418,0.3193448998,0.2526059884,-0.0085497682,0.196833298,-0.1940753318,0.3079782676,0.1556469522,-0.3520216074,-0.2532973092,-0.2187292877,0.1960757805,0.0201068387,-0.3666196368,-0.0587454346,-0.3273625638,-0.1485018279,-0.3018283461,-0.1176714165,0.1788079053,-0.0988977886,0.1716715055,0.0477104902,-0.2911288143,-0.3178169984,-0.3041472419,0.1754623601,-0.3555282299,-0.2212574829,-0.1256881233,-0.2722932925,-0.0306731355,-0.1174311204,-0.0077660713,0.2581372187,-0.0871782648,0.1526781665,0.2323619314,0.198339623,-0.2378054771,0.0357461363,-0.214107749,-0.0108743131,-0.2243488938,-0.2178724106,0.2976693418,-0.1995110081,-0.3554541925,0.1012052967,0.1527804574,0.3197041555,0.2982243472,-0.1492495791,0.086079672,0.2516986603,0.1386250887,-0.2572063759,0.0653653484,-0.2307318369,-0.1594179373,0.0645668811,0.3131828071,-0.2080630755,-0.0685595762,0.0924797313,-0.0307472952,0.0198933546,0.0419219199,0.2294851372,0.0330539152,0.0119165381,0.1803141521,0.0941799643,0.1912109961,0.1782313362,-0.0264036281,-0.2275403624,0.1960610523,0.2138547626,0.0949251409,-0.0662976218,0.2914492884,-0.3331240683,-0.2185649248,-0.2282341962,0.2362510397,-0.3748260077,0.2687718677,-0.1524937488,-0.2109157162,-0.0232422048,0.1501983399,0.1801452042,-0.159002662,-0.3150446449,-0.1555802841,0.0767070599,0.2974817499,0.2030985381,0.3197253088,0.1219608214,-0.1517531526,0.146698092,-0.3051570073,0.3523163233,-0.2617040566,-0.0565207572,0.0473131083,-0.1559101502,-0.3174873451,0.3234439782,0.1681964292,0.0760938434,-0.2254281615,-0.2543656331,-0.1589184965,0.0132151941,0.1138114683,0.0865920301,-0.3907924931,-0.0063884308,-0.2280765507,0.2179852669,0.0884949754,0.0818596755,0.2227665925,-0.0348172321,0.2942242465,-0.2816773493,0.1673435675,0.0120331646,-0.3745885619,-0.1686354439,0.008002979,0.0426261111,0.2519251124,0.1619619624,0.0721695518,-0.0042102949,0.2234785303,0.1454101492,-0.0429328038,-0.2442168869,-0.0637846577,-0.2129754765,0.2941123794,-0.0967486563,0.1487298774,-0.1058309285,0.0649972071,-0.2911723563,0.2158109064,-0.2403734707,-0.3749084056,0.0312478481,0.1330106876,-0.3614639776,-0.0268095407,-0.0689216069,-0.2568232636,-0.0992519084,-0.3551466633,-0.31743789,-0.0257414086,0.2517790945,-0.0468010673,0.1864317185,0.2714796585,-0.2352484514,0.1435800515,-0.1211886187,-0.1060632097,-0.1527655598,0.3059080943,-0.196676059,0.2268489084,-0.3117920419,-0.3081503552,0.1641084644,-0.012657254,-0.0793049838,0.0440395559,0.0963935721,-0.1669381621,0.0731969871,0.0493789265,0.3199797856,0.2899778023,0.2952652322,-0.3270474651,0.0911549048,0.0923543294,0.2061992095,-0.289017411,-0.1201012118,0.082333314,0.1907449867,0.2564335213,0.07214564,-0.3354792166,-0.1942857293,0.2727926995,-0.2421654452,0.317617553,-0.1324462119,-0.3469770003,0.0301898266,-0.0708803448,0.2542928443,-0.1570421893,-0.2070481741,-0.2428777751,-0.0053390244,0.0338660262,-0.0448781771,0.071446806,0.2880866704,0.1358365278,-0.0816926469,-0.2216154479,0.3032125975,-0.2403756848,0.2745645336,-0.1793240247,-0.1124735277,-0.0327326483,-0.3649814183,-0.125092319,-0.047952911,-0.0425114846,0.2284068163,-0.0758202676,-0.0339172568,0.1042879534,-0.0655119392,-0.1391659971,-0.1640686041,-0.168805838,0.2155074672,0.0125161099,0.1069166592,0.0695044062,-0.0877563107,-0.1997357754,-0.0282085542,0.0618964045,-0.3508154319,-0.1211891114,-0.1572826708,-0.1503657008,-0.1308365858,0.2176337256,-0.2411585993,-0.1374942514,0.0088852629,-0.3616823031,0.070077405,-0.0528083321,0.3099069047,0.0502815196,0.0898659015,-0.2457918117,-0.1274439294,-0.1827136996,-0.0616753431,-0.3683406196,0.3082569056,-0.1969543614,-0.279583992,-0.2273582941,0.0752166572,0.2040157449,-0.289692495,0.149537912,-0.0202578041,0.2643593379,0.3105696788,-0.1680731565,-0.3702389592,-0.0597587153,0.0781745221,-0.1676601021,-0.0964145668,0.1684290605,0.2961746951,0.2449095144,-0.1302861264,-0.3784839514,0.2652916027,0.2932267952,-0.2127108654,-0.1808766627,-0.1489479172,0.1429502212,0.047670449,-0.3464442574,-0.3524641643,0.1628091774,-0.0346049522,-0.3230590149,0.0316063922,0.3142889158,-0.2282493788,0.1005768706,-0.0468136772,0.1910686984,0.2935874332,0.1378076119,-0.1247160044,-0.3210322865,-0.2221465746,-0.2078483267,-0.0504586009,-0.0317906151,-0.3720498201,-0.0833392693,0.316621278,-0.270462844,0.0896384862,-0.2444025261,0.0721568008,-0.2629316537,0.1979396115,-0.2119044953,-0.2559812599,-0.1756005169,-0.0208331771,0.1185483433,-0.0307286768,-0.2955240771,0.0900298085,0.089751178,0.1960348702,-0.2514674571,-0.3072656787,0.1482241932,0.0225106299,0.2419608036,0.3101546264,-0.2616756881,-0.3701391093,-0.3624338157,-0.1882838273,0.1856783488,0.0379231897,-0.3599083485,-0.1553270813,0.0552928747,-0.3414189643,-0.0953178832,0.1551391043,-0.2055921961,-0.2235781207,-0.3550757954,-0.3555441782,-0.026451851,0.2424622914,0.1888915293,-0.3245849151,-0.1422405378,0.2720706547,0.0607117378,0.2928937352,-0.0308656231,-0.123379354,0.276032665,-0.2726842903,0.0957590163,-0.2465056033,0.3901597974,-0.1281418806,-0.0694553519,-0.2532154106,-0.3647581507,-0.177329769,-0.2235267372,0.194403387,0.0579047422,-0.2801244478,0.073211657,0.0202826176,0.2193284309,-0.1381446352,-0.0161260191,0.0761636878,-0.2164332148,-0.3753962236,0.1863740552,-0.0592421814,-0.365019076,-0.2124639738,-0.0053075022,-0.2979183321,-0.2203989123,-0.3678865434,-0.3209401953,-0.1976506898,0.209792211,0.1287677464,0.2511868777,0.0077691908,-0.0184286535,0.1245144031,0.2050840838,-0.1347091013,0.245011095,0.3592816743,0.146265233,-0.2699930205,-0.0116486817,0.2286271437,-0.378519654,0.2172099586,0.0743333179,0.0072326852,0.1463327951,0.2767237886,-0.0411059426,-0.0904436107,-0.1419709002,0.0856787822,-0.3528602865,0.101467328,-0.1775702956,-0.0198911995,0.1404206533,-0.2079724402,-0.2820512108,-0.0908912854,-0.3840648889,-0.2709896008,-0.1574368129,-0.2904736154,0.3494016491,0.2298356574,-0.0114374878,-0.1161427173,-0.082553437,0.3751408129,0.0929751791,-0.0487285738,-0.0996901669,0.0400026706,0.1876138618,-0.3465412709,-0.0925260771,0.2414138107,0.2757040376,0.0563948743,0.2874374069,-0.0466189747,0.2464200168,-0.3614601832,-0.1864421759,-0.372294942,0.2657097047,-0.1281053156,-0.2812385796,0.100142374,0.2868065535,-0.2064777194,-0.128163564,0.038420464,-0.2762170846,0.1295178422,0.2341494879,-0.2901193246,-0.2161684545,0.2897691245,-0.1193463603,-0.2573518044,-0.0772267582,-0.1329506051,0.0565301187,0.1862902901,0.2399438101,0.01603898,-0.2655056535,0.0974231754,0.0535795869,-0.2804019472,0.28198356,-0.2031944409,0.002419707,0.258922449,0.156575267,0.0531647025,-0.3538919476,-0.0856339668,-0.3356534469,0.1304711869,0.2742131441,0.106842079,0.2724230236,0.0120869534,-0.3326590551,0.1336048314,0.2883925943,0.2662395171,-0.2809295606,-0.1816345829,-0.2334282693,0.1933762579,0.0330718753,-0.2611073933,0.2174066706,-0.0897384459,0.2754879702,0.2883660903,-0.0850754114,0.0848646166,0.0658937242,0.3765528185,-0.3140643466,-0.3007268825,-0.1725619482,0.0336564602,-0.0799961954,-0.2624745329,0.0712068955,-0.2956527499,-0.161307933,-0.2494463361,-0.080412441,-0.2504023319,-0.3116039843,0.2743236063,-0.2202786187,0.1293383006,0.0052022152,-0.291243892,-0.0294523387,-0.3116735243,0.268289657,-0.193607846,-0.1197233764,-0.0200883026,-0.1722818108,0.2146732994,0.2919772864,0.0677822177,0.0901280015,0.1786837742,0.07440981,0.1993469029,-0.1009460923,-0.0219160259,0.1116883766,-0.3178828776,-0.3700165735,-0.1371481805,-0.0348627178,0.0313089618,-0.0106982641,-0.3560820041,0.2694330808,-0.3568642306,-0.2576002429,0.1703362106,-0.0540130398,-0.2137178558,-0.1855205841,0.2942763099,0.2592639187,0.1929669318,0.0662767238,-0.0715087891,-0.0871291605,0.1689302664,0.1065211362,0.2028544395,-0.342073807,0.3384468137,0.2844708103,-0.1154971383,-0.3285686988,0.1008168937,-0.0429047607,0.2977837803,-0.0149607547,-0.2283836323,0.3061493788,0.0970978336,-0.015493092,0.2271363284,0.1494459499,0.1258612143,0.2646088828,-0.0958580409,0.2548228873,0.2825928788,-0.178501095,0.2053761533,-0.3091905696,-0.1495334179,-0.3646124833,-0.3923421567,-0.3003953779,-0.181849599,0.208136278,0.2789490347,0.0027010151,-0.276715284,-0.1539680962,-0.1306175477,0.1793506072,-0.0979762703,0.210104784,-0.2629914711,-0.372775224,-0.0935858919,0.0987854493,-0.3080836433,0.0367890622,0.1258112748,-0.0004550535,0.2665263695,-0.1724764458,-0.3060553955,-0.1628992131,0.1782234522,0.3049491805,0.2900144437,-0.0153606422,-0.1181604764,-0.1296223869,0.2424138426,-0.1521591782,-0.3168302735,0.0567778541,0.0295232159,0.2461761829,0.1872873905,-0.1841325618,-0.0351349283,0.3212456817,-0.3370660598,-0.0673335803,-0.2547517679,-0.0427109521,0.2630574257,0.308389262,-0.1863646984,-0.3199654854,0.2830977766,0.0635422457,-0.0053287595,0.2088988427,-0.178889452,0.3696060939,0.1815711593,-0.0707682913,-0.0298735272,0.0105137969,-0.1391267714,-0.1407730019,0.0773082107,-0.123149654,-0.2961348073,-0.1031215351,-0.0808273105,-0.345066202,0.3261302037,0.0293289647,0.0756368713,-0.0421551953,0.066990121,0.1955429277,0.0089563848,-0.3329260598,-0.3854994168,0.1025430377,0.4530423471,-0.3560728749,-0.1706608405,0.3345237792,-0.1006301861,0.1860849634,-0.2082621672,0.3076909214,0.3774901192,-0.2751474425,-0.069334701,0.0546361321,0.0462833098,0.2858529581,-0.1754482736,-0.2121982773,0.3716610487,0.2199636757,0.1231053611,-0.2968725271,-0.2005009987,-0.3399247011,-0.0864652858,0.1620218628,0.1147878062,-0.1243484113,-0.046431297,-0.2616364503,0.3901716126,0.0694529986,0.1281819029,-0.1810625593,-0.2360327382,0.0322751921,0.3349204175,-0.1177139351,-0.1079372702,-0.3185555568,0.2421754811,-0.3283135878,0.2644285434,0.1979174033,-0.2012371993,-0.2607497394,-0.3286795293,0.1941346331,0.013773302,0.2254518162,0.1566863249,-0.2947025004,0.3743219513,0.0073568124,-0.1974502866,0.2742238478,-0.2640778937,0.1442711305,0.1188984748,0.0213037709,-0.3132826939,-0.0651866853,-0.2490486508,0.0847542306,-0.1349863344,0.0056059661,0.180225157,0.0155045894,-0.1636853771,-0.2647178643,0.0302563033,-0.0641981247,0.097383175,-0.1417578413,-0.2231860689,0.3096980738,-0.3096962146,-0.2527879498,0.0517761476,-0.3116229843,0.0517887411,-0.1207783562,0.1172010223,0.3134371942,-0.319653953,0.0768475298,0.0427168743,-0.0774899549,-0.2472106244,-0.2734682874,-0.1105558774,-0.0390864425,0.1688249818,0.042596361,-0.320009583,-0.0650021835,-0.0732218244,0.227604864,-0.0120101574,-0.3476513286,-0.1489952567,-0.1174076729,-0.3782165845,0.2450157048,0.1925248331,0.193431247,0.2963781468,-0.1753664283,0.2680368097,-0.0834844425,-0.1772852035,0.013249257,-0.1354474482,-0.0912260287,0.3115518817,0.1580153133,-0.2487493174,-0.0950575146,-0.1162900061,-0.1883251659,-0.2442841612,-0.0844400168,-0.1715301878,0.0704292199,0.3082607261,-0.0575349349,0.2531803292,-0.0435424361,-0.1274964533,-0.2120436354,0.1168481529,0.0895144202,-0.2725425477,-0.2189206639,0.0668598369,0.1443618024,-0.2746761941,0.0329569528,-0.3648130196,0.365453027,-0.3352650162,-0.2543912071,0.1454516697,-0.1426564721,0.3030696245,0.0499987463,0.0410355555,-0.1351655143,-0.0967623988,-0.0947474072,-0.3069934241,0.1091941543,-0.1477735025,0.1959850116,0.2546151621,-0.2912219382,0.4262520665,0.2520986664,0.1683251834,0.339922768,0.035363884,-0.15179625,-0.1062819734,-0.1907031779,-0.1977534725,-0.1249717819,0.2554435406,0.0975945337,-0.1974728907,0.1199285736,-0.1740208336,0.2425936484,-0.1132270227,0.1739871413,-0.3502155482,-0.2003666741,0.0031506756,-0.0963847555,0.3483622052,-0.2619382442,0.1765491393,-0.2995051201,-0.2538342011,0.0492756553,-0.0903759821,0.2377783281,-0.3235784555,0.2556123205,-0.3113593371,0.1476582535,-0.1975440532,0.3091398125,-0.0238715972,-0.1693266695,0.1775780869,-0.2334361308,-0.1637857474,-0.3104123418,0.2859075707,-0.3506356977,0.0592395982,0.1038915579,-0.0126011188,0.0946521169,-0.2107190486,0.2229717938,-0.360987915,-0.0830711812,0.2349071384,-0.1351146415,0.1376023817,0.2116646743,-0.4121208868,-0.1638811472,-0.1380625803,0.1158612401,0.1765296974,0.1868863306,0.1937412042,-0.0388813532,-0.3411259638,0.2375710328,-0.0538233084,-0.0912858371,0.2430605586,-0.0748806162,-0.2057712314,-0.0032588485,-0.3157569574,0.0325898778,0.0135650824,0.0881273395,0.0043116291,-0.1202356774,-0.1182657662,0.2238098309,-0.0100405206,0.1055135673,0.0648038749,-0.0831673537,-0.2621524171,-0.1344177193,-0.2859796628,-0.2120405299,0.3084018133,0.0102886145,0.3579415072,-0.0369030827,0.097267565,-0.2810918678,-0.1032228346,0.3666165904,-0.0272508411,0.1802292436,-0.1750046859,-0.2146899918,0.2684290436,-0.0345156132,-0.2826712212,0.0511592778,0.0711533443,0.3674436244,-0.0047933547,-0.0001006378,0.267614197,-0.0211405355,0.1910881632,-0.0928129937,0.1454662282,0.1701401054,-0.0689045506,-0.1742261449,0.2395019305,-0.1740919048,0.431968864,-0.210417714,-0.1687973084,-0.2882457845,-0.1030580709,-0.0054962546,-0.1220697111,0.0852212613,-0.0045169107,0.3155346173,0.1986512498,-0.3246584955,-0.0027570092,-0.0084978773,0.0820551862,0.1562882432,-0.3302965504,0.2112071969,0.0832959381,-0.0769471257,0.2330114881,0.166775322,0.1959569059,-0.281705197,0.1039370308,0.1187194592,-0.2587245681,-0.1309150547,-0.1181717633,0.2738663078,0.3249133633,-0.1740530624,-0.2530660944,0.1113119313,0.0475084328,-0.0516361555,-0.1090204725,-0.1889219144,0.3383327126,-0.08145783,0.1780892391,-0.1157972491,0.0313721418,-0.3148246678,-0.0095288667,-0.202172427,0.0546424424,0.3153275181,-0.1115097095,0.3038252149,-0.1805406377,0.1412410829,-0.2438386792,0.0042224422,0.0831754421,0.2739024401,0.1775270347,0.0156369816,0.1026842283,-0.1624263232,0.2610311484,-0.2434502734,0.0113451408,0.2297412,0.2365043576,0.1869439997,0.1210000487,-0.3441157324,-0.0241921516,0.0503920949,0.3053481847,0.2323928958,-0.2765333637,0.0445829377,-0.0953950251,0.1117183544,-0.2721813808,-0.1352129037,0.3417692823,0.3902280812,-0.1283900119,0.2721785469,-0.1260983924,0.0305779482,-0.1807121726,0.0189630019,0.2286026854,0.2724540469,0.3672448229,0.1801528162,0.0596505889,-0.1755493991,-0.0384311702,-0.1474540512,-0.2207397554,-0.3668040725,-0.1916424795,0.2154083597,-0.1283591251,-0.0955186786,-0.2783231964,-0.2710514377,0.2693993376,-0.2190936372,0.1949151976,0.0566312828,0.3687536491,-0.0267874375,-0.007174441,0.1946039811,-0.2832257703,-0.3689058862,-0.29129376,0.240170057,-0.1013639473,-0.1167928115,-0.1004589731,-0.2713790481,-0.1317888858,-0.0832126805,0.3064601876,-0.1087245853,-0.1827899273,-0.0675326787,0.3123293698,-0.1638421037,0.1081767227,0.2254565897,-0.0079498554,-0.2567237376,0.061782031,0.2082415615,0.0878339102,0.0184215518,-0.3087106328,-0.0756781148,-0.0425129075,-0.0128963129,0.1532242869,-0.0790051164,0.1844564252,-0.2135812645,-0.1740465482,0.2548212041,-0.0662393184,0.1484213143,0.2362318363,-0.2378505996,0.2877487034,0.0859535821,0.1076047981,0.274150222,0.2145297851,-0.2255627448,0.1669435628,-0.1605499481,0.2182005197,0.2258838883,-0.257391392,-0.1704389956,-0.0344153062,-0.0123086766,0.1812435825,0.111606718,-0.144901516,-0.2795710829,0.1464757982,-0.3883872821,-0.1591524918,0.0295612166,-0.3805676702,-0.0770583624,0.281880704,0.1350639938,0.1782150233,-0.1458067613
   -0.3995834913,-0.0356931487,0.0653029184,-0.1584318091,-0.3119995111,-0.2547407641,0.1738937321,-0.2438868477,0.2109162296,0.1994451914,0.0435795377,0.0633680809,0.1477155315,0.2053131295,0.0595164385,0.1218900297,-0.245606142,0.0994305536,-0.3451042954,-0.0372987341,0.1517820019,-0.1120015299,-0.2584096256,-0.3655459352,-0.2590249875,-0.0015567477,-0.2863274004,0.2553186921,0.0697202147,0.1094478871,0.2655716515,0.1109522878,-0.0438482262,0.1891482162,-0.0012128029,-0.3245938402,-0.1352842559,0.191614597,0.093824153,-0.309423845,-0.2887226709,0.1967200123,-0.3259981361,-0.3314676413,-0.2921877878,0.0202181333,0.2234914812,-0.2323469132,-0.1192717077,0.1070409017,-0.021317021,0.370061695,0.12310165,0.1084589207,0.1456147853,-0.3325318915,0.1967183448,0.0461601146,0.1358029689,-0.3251421504,-0.0548432815,0.2069498873,0.1602653517,-0.181870335,0.2118028494,0.2679379479,0.3024270832,0.2856066493,-0.3510750481,-0.244235594,-0.3369373996,-0.2855882987,0.3226082867,0.0772731392,0.2503219168,-0.1336588115,0.2355703821,-0.0353993301,-0.3385038248,-0.2466045729,-0.1938492098,0.0453091581,-0.0080582732,-0.1218499668,-0.1422738535,0.3455150977,0.0831687586,0.0374104451,0.1152356063,-0.2091401197,0.1593518898,0.1384391089,0.1577893673,-0.2151660119,0.1962048783,0.2019845486,0.0736347106,0.1248786738,-0.355575011,-0.0692216788,-0.2276551528,-0.0393994444,-0.1902767144,-0.1678137127,-0.2556708085,-0.2783717971,0.2331819143,0.0568215418,0.211438388,-0.1112124271,-0.0278857049,0.1567696443,0.0928007935,0.064674117,-0.1171736633,-0.0361686804,0.0944452563,0.2040309155,-0.1187891045,-0.0645818468,0.0013803184,0.2062258024,-0.375254414,-0.2903274048,0.3000626249,0.2888253123,-0.1292887624,-0.0487762854,0.1567589729,0.0456642388,-0.3827006045,0.230314956,0.0874766135,0.1059395042,-0.1295183462,0.0763137969,0.2245621521,-0.3435510389,-0.2507269605,0.0659476233,0.3205948249,-0.3432814768,-0.0314417277,-0.0371276473,-0.1458256391,0.1954062997,-0.3180912941,0.193655506,0.2681002305,-0.3635983029,-0.0875083083,-0.1116343853,0.011334098,-0.1116741278,0.1486171091,-0.2365753751,-0.2616039862,-0.2079418715,-0.3714272419,-0.287938381,-0.1979995818,-0.1475854008,-0.1638352993,0.0905488364,-0.1767099318,-0.0301013869,0.0716961852,0.2395962005,0.1925534933,0.2905427987,0.0411516615,-0.1074406288,0.2847802108,-0.3230699154,0.0586647303,-0.2646541888,-0.3702673637,0.1587920951,0.0767100764,0.0370952727,-0.1541350607,-0.3851247256,-0.1125558577,-0.2371001522,-0.1119223623,-0.1375037068,0.1368601085,-0.2652184059,-0.0548070227,0.2907312809,-0.3079185385,-0.3073942858,0.0582444088,-0.1089877722,0.1946362913,0.1062232721,0.0952564701,-0.183167762,0.3508796284,-0.1631332168,0.1374364343,0.1739889184,0.0557815739,-0.1043858917,-0.1799714858,0.1468822691,-0.1684731365,-0.0028805404,-0.1857914494,0.0292967879,-0.2200489342,-0.0106907546,-0.0646399868,-0.058042347,-0.188070379,-0.317226557,0.1409081272,0.1377347959,-0.1454838742,0.0269795302,0.2958327788,-0.2681333591,0.0987147507,0.2577194335,-0.2699927125,-0.0424781448,-0.2524362603,-0.2711244022,0.266785069,0.1603695651,-0.1884942909,-0.3641548594,-0.1199261325,0.3674740892,-0.114411025,-0.1063872859,-0.0981334955,0.0626728832,-0.2576735427,-0.1669511186,0.0953017821,0.0142607795,-0.3430649361,-0.0323901903,-0.2954655018,0.3018325014,-0.3907519102,0.0254047892,0.2470139139,-0.0012226899,-0.3360544025,-0.0251363523,0.109615975,-0.1860592625,0.2687601877,-0.1013599208,0.1022540886,0.2622273573,0.244634352,0.2649253004,0.1287092116,0.2818273862,-0.1787856441,-0.1808897032,-0.3669577616,0.3014067187,0.0224627854,0.2214721467,0.1624716782,-0.1042676401,0.1004215088,-0.3479490152,0.2649280015,-0.3918373558,-0.3354455698,0.1658551849,0.3049740877,0.1371205628,-0.2883725948,0.0136190319,0.0520142176,0.1158514109,-0.3708223924,-0.0071237579,-0.0225883404,0.2539323888,-0.1721442451,-0.2882563835,-0.0636635562,-0.2951726592,-0.1818074375,0.1012075464,0.196201011,-0.2258424137,-0.3912846503,-0.2444614226,-0.1732480056,0.1661044807,-0.1322622912,0.1935688625,-0.3948093017,0.1206760431,0.1305129812,-0.1902243521,0.0187101561,-0.0644352211,-0.2796435995,0.235630536,0.0009570636,0.1419322388,-0.3643355087,0.050007136,0.0275083054,-0.1651039064,0.0559268614,0.492978336,0.5934977515,-0.0019970616,-0.0517133688,0.2863761809,-0.1654513374,0.1902039661,0.2279373852,0.0818440341,-0.5836928351,-0.067286614,-0.1537929245,0.0839221709,-0.2615051989,-0.578491021,0.1390659182,0.4095443752,-0.2896391489,-0.2290695113,0.0422883805,-0.2193558184,0.1564103755,-0.0026636449,-0.0507073483,-0.2618806149,-0.1184123214,-0.196506114,-0.3767988195,-0.02797835,0.3569747119,0.3058222928,0.1511202212,0.2488521986,-0.3509523239,-0.0105263043,0.1898303397,0.2714708354,-0.2131845162,-0.3594139419,0.2304613055,0.1189062451,-0.1115961556,0.1026988552,-0.2733084706,0.0270364798,0.262809868,-0.0834288553,0.4914976999,0.1497259418,0.1502765824,-0.0798812814,-0.109478533,-0.3240090554,-0.0982328759,0.3381415141,0.1828618286,-0.3006089802,-0.0411392439,-0.0740030334,-0.3908729238,0.3173012013,-0.0200326711,-0.0913389299,-0.0360389894,-0.1367887202,-0.3963594724,-0.2780768484,-0.1358421406,-0.2054799196,0.1270569878,0.2712494668,0.5464714853,0.0634940615,-0.2112917585,-0.2958271797,0.0266347984,-0.3265879322,0.6408179766,-0.0061534583,-0.0239559826,0.3893493099,0.0222611601,0.4599260579,-0.1806505331,-0.0870202472,0.0510161518,0.023635528,-0.2441166294,0.2298583048,0.0943763645,-0.2280136634,-0.098386947,0.1587487671,-0.3509903488,-0.3089796968,0.6452480579,-0.111782877,-0.2662100535,0.414570629,0.0686143764,0.3706157776,0.2263717298,0.1489716338,-0.3356310695,0.258209149,0.1236984929,0.1735749593,0.5032584002,-0.1890772154,-0.1786252687,-0.0449755976,-0.2445499275,-0.2935483343,0.267436282,-0.1586266779,0.2493486245,0.0640336746,-0.2905520226,-0.3064805706,0.087651735,-0.4311888243,0.1779537873,-0.1281135891,0.095047584,-0.3825103043,0.0429515281,-0.4038968401,-0.1731663087,0.0597825867,-0.4461794775,-0.1505080462,-0.1071875809,-0.4151498656,-0.3337716128,-0.2376197468,-0.242459773,-0.2854832719,0.1045548354,-0.3102292543,-0.141103754,-0.0641234934,-0.0433364355,-0.1894347111,-0.1468865695,0.1427254148,0.0694509422,-0.048526015,-0.2799450962,0.2161074986,-0.0718120488,-0.1333298974,0.0482875684,-0.1727208483,-0.0388699806,0.0105941975,-0.226260672,-0.3769106757,0.1035580313,-0.3156097539,0.6832723302,-0.3787667532,0.1579390252,-0.1550222889,-0.0177752158,0.0925177288,-0.0160468292,-0.0487540095,0.4939843534,-0.0947394091,-0.2959838017,0.3208320402,0.0579301262,-0.4905216599,0.1017176237,-0.0206862953,-0.1967660513,0.1431088819,-0.1880996745,0.1285360492,0.2322859504,0.5019100482,-0.2037703747,-0.1650554406,-0.306538676,0.2961504713,0.3033317894,0.2526172717,0.0411947389,-0.1638605607,-0.0017912263,-0.3133961166,-0.3403904796,0.2141605144,-0.1187141338,-0.2817096427,-0.0994232541,-0.0080214895,-0.2915132547,-0.3516323249,-0.2127221569,0.1823644757,0.3758747764,0.1848990486,-0.2984249605,0.0238826239,0.0639014476,0.4055947098,-0.0310986014,-0.0727921208,-0.195122374,0.0732869959,0.1459124421,-0.3237837776,-0.0516188748,0.3248002833,-0.1701455055,-0.0469364651,-0.0241101935,0.2078957612,-0.2274319705,0.1388457225,-0.2053463903,0.2403792598,0.1801136934,0.0436877203,0.2255645476,0.2087013088,-0.0041671101,-0.5904715844,0.0053581965,-0.2153564236,0.1039354889,-0.0045355371,-0.4388227693,-0.274273491,0.1834783144,-0.3540148749,-0.5089143684,-0.1690732729,-0.5659506325,0.0354738139,-0.3889227472,0.0592776579,-0.2570680045,0.4696749042,-0.0850891715,0.1496890702,-0.5454251292,-0.1783249496,-0.2702220255,0.5900901897,-0.0474116768,-0.0158840223,0.3695024332,-0.1022943646,-0.2794492386,0.0313436549,-0.3228659399,-0.286786037,-0.1768781616,0.5637078383,-0.1837216011,-0.3338066838,-0.0308954474,-0.1652924446,0.4813093053,-0.3266810797,0.2018212677,-0.0968447878,-0.0553618831,-0.2356959187,-0.3665023841,0.0795104665,0.2460192222,0.2298225662,-0.1862489749,0.4254062918,0.1867267995,-0.3305248589,0.2544523677,-0.1087953063,-0.2276823158,0.5498453909,-0.1131919879,-0.2306633094,0.2755434405,-0.3762948226,0.2027722417,0.3772991143,0.2318721054,0.8754396018,0.0142008489,0.0798876726,-0.1545543704,-0.2208299864,-0.3235251516,-0.2379776703,-0.2645804033,0.7283781636,0.2476293179,-0.2114865667,-0.2209130821,0.0938765676,0.1346882292,-0.1525459638,-0.1114057009,-0.0392454128,0.4338115853,0.3260517731,-0.0572580906,-0.0132135223,-0.1068745547,0.3463231032,-0.2462314312,-0.1893553906,0.019194836,0.6910126379,0.1171202945,-0.1064365579,0.3946325849,0.1123869754,-0.2824558104,-0.0641066683,0.3507838878,-0.1711281916,-0.328881873,0.4173826295,0.0362585101,-0.319028931,-0.4247293786,0.1298510216,-0.1048535892,0.2559262739,0.0923530867,0.1066811356,-0.3843732134,0.3045923399,-0.2645241021,-0.2428133348,-0.3060192506,-0.0272509863,0.2321868006,0.2522607293,0.2352601982,0.2657868914,-0.151362412,0.2373022529,-0.2260815267,0.1357257268,-0.2091653903,-0.1123556504,-0.3071512951,-0.3603059861,-0.2820917285,0.0211450537,0.2138660221,-0.0679318302,0.2439530559,-0.3187898617,-0.0495401552,-0.2753967277,-0.0352730096,-0.1174338186,0.0108908596,-0.3260044055,-0.2414216474,0.0696453647,-0.2481622788,-0.0806998742,-0.5398631274,-0.284689366,0.0422341361,0.0373746512,-0.2877242167,0.0953461377,-0.2225312062,0.037658044,0.4194692069,-0.2555273297,0.2408349106,0.5156967047,0.1649757556,-0.1148007317,-0.0906528365,0.2870476545,0.2814615664,-0.3191657633,0.0081135564,-0.0678862129,-0.2100417105,-0.1377271651,-0.2425336996,-0.1047721219,-0.1432163602,-0.4922897334,0.3291718059,0.1652065697,-0.2967899911,-0.0659890817,0.0845948591,-0.6747698099,-0.0512011978,-0.351530128,0.1396296444,0.2567980405,-0.2026069493,-0.0855147701,0.2191251734,-0.1394549424,0.0593108111,-0.0345768903,-0.069190189,-0.3618329289,-0.3649317799,0.3103781035,0.1061146576,0.3143187708,0.1782090143,0.2910466487,-0.2918425117,0.0723340507,0.259941268,0.102313979,-0.0282631516,0.2481966632,-0.218588062,0.1138798681,-0.2087407142,0.0030766369,0.1900716594,0.0819920253,0.2689010375,-0.2122698379,-0.0986095634,-0.3755419234,-0.165617528,-0.0002024901,-0.0760664219,0.2090910263,-0.3138276753,0.0228604612,-0.0841800042,-0.1527107798,-0.1807547537,0.1067268695,0.2948626358,0.086239594,0.1937977532,-0.0548576747,-0.1725025055,0.262861964,0.0538641175,0.1724144098,0.1173901183,0.1730607903,0.017376228,0.082267244,-0.2085894837,0.0048668452,-0.1665897063,-0.0609502854,-0.2667364403,-0.0580757421,-0.2822244227,-0.2193365905,-0.3079631125,-0.0548982521,-0.2826236897,-0.0811635621,0.2141022176,-0.3617562691,-0.0080084102,-0.1597326231,0.2330889135,0.2148243856,0.1846725616,0.0484843,0.2110739707,0.148620208,0.0766972617,-0.3619998649,0.1520155763,-0.0060288971,0.2425566759,-0.0616614896,0.1082086982,0.0567923013,0.127038681,-0.2505740462,-0.2380917041,-0.0430447736,-0.343964831,0.2586933816,-0.1541666731,0.2053105486,0.1065733721,-0.0915324915,-0.0917540311,-0.0331129097,-0.0872374493,0.1753832895,0.0015317249,0.0905069685,-0.0621523037,-0.1374823556,0.1599616321,-0.0198401947,0.3100023033,0.2258024318,-0.1790848629,0.0620892497,0.2085736275,0.2900564955,-0.1096801355,0.0759912784,0.0088657996,0.166345189,-0.0081680762,0.0786140984,-0.2791249938,0.1371929151,0.1295382611,0.3109593354,0.2921737522,-0.2409810419,-0.1953296907,-0.3404301217,-0.0546099795,0.0751125897,0.3108551919,-0.3654889132,-0.3806159375,0.190486058,-0.1328095737,-0.2186731272,0.1098261452,-0.3631276532,-0.0910584292,-0.0592367963,-0.0512747029,-0.1262185451,0.2777688371,-0.321796929,0.3010720598,0.2866241195,0.2486865458,0.3029973195,-0.0062165421,0.0577697872,0.1773408403,0.056759566,0.0723422781,0.3662034653,-0.2509797639,-0.0389183874,0.2672187849,-0.2426118755,-0.1357221859,0.2609341231,-0.3457615489,-0.2421157978,0.2911025883,-0.2337544416,-0.3045140322,0.3086566117,0.2407327666,-0.332114557,-0.3462790138,0.046198989,0.1857551032,-0.0352198686,-0.3713303188,0.2631145633,0.0793128429,-0.0508074585,-0.2761312916,0.3156809648,-0.1211233019,0.2367579749,-0.2311031772,-0.2904322802,-0.1957393354,0.1188148109,-0.2354397648,0.1665233283,0.0786816288,0.1342296179,-0.0200211198,0.2129806593,0.1709551074,-0.2627240765,0.1634323926,0.324493449,0.2656037718,0.2388917021,-0.0627221647,0.0697083824,0.2106678045,0.0612389199,-0.211811546,-0.0298299187,-0.0213265165,-0.2612873656,-0.098838029,0.0663828481,0.0570152931,0.3510247576,-0.0350659798,0.0819760897,-0.3105290474,0.1013665117,-0.2528870895,0.0142542471,0.1105550657,-0.2338408921,-0.1404757303,0.1818042598,-0.0592086412,-0.0446550035,-0.1970412461,0.2784980352,-0.172629754,0.2849387523,-0.1291432317,-0.1799146336,-0.3457708051,0.2488786753,-0.0662908107,-0.2338299576,0.010365275,0.2222841675,0.3738198291,0.3339544334,-0.0111307419,-0.0800250152,-0.3836397117,-0.2535656973,0.1117792051,0.3051978348,-0.3443195662,-0.2226988858,-0.2074722718,0.3057495526,0.279671913,-0.2744507146,-0.2548679956,0.0466077685,0.2044492503,-0.0493789861,-0.063377392,-0.2664182885,-0.0247449082,-0.0450647358,-0.1349131319,-0.3723194596,-0.2650713829,-0.1113085152,-0.0398985456,-0.1853485439,-0.1447252128,-0.2798998,0.242523128,0.1521265944,-0.0702610877,0.2491857867,0.0423002585,-0.3233176287,0.2856318809,0.0062707455,-0.3357780345,-0.1078120877,0.0533366529,0.3091643204,0.1483123429,-0.1420737707,0.2878260399,0.266070612,0.2801142465,0.2205623803,0.2045218041,0.1536143498,-0.2902046601,-0.1005066935,-0.3403265644,0.282065077,0.3215662259,-0.140722633,-0.2772789412,-0.1864565126,0.0971972354,-0.1989256161,0.0800142127,0.1679810337,-0.29204324,0.0872565038,0.1626862268,-0.2351185207,0.0281626085,0.1502549592,0.164237049,-0.3103418949,0.306766054,-0.2447702887,-0.2017308933,0.0182265168,0.1649364488,0.2758472523,-0.0905058732,0.1198499761,0.272175274,-0.3733811237,0.3156239147,0.0242012483,-0.1824762256,-0.3085707994,0.0446432084,0.0118039483,0.0218841195,-0.3355719006,0.2578632601,0.0717509237,-0.3160047655,-0.0091711569,-0.078484909,0.211042676,-0.1645537776,-0.3319684396,-0.2661518725,-0.3489494283,-0.2754944943,0.1876297282,0.2142725447,0.0642943131,0.3198497123,0.3123720292,0.0192604922,-0.1686160942,-0.3011314963,-0.1034721232,-0.2763295189,0.2043878134,0.2332878254,0.2780681118,-0.314895569,-0.1654355036,0.263566019,0.2515163755,0.284186406,0.1608397367,0.1851155503,0.0110347073,-0.3787720108,-0.2905166094,-0.0583010559,0.1640699694,0.1918852449,-0.283487955,-0.3795988116,-0.2403875137,-0.0575863514,-0.2098043651,0.2697889005,0.1715136766,0.21967113,0.1354588719,-0.1467367905,0.0082112784,-0.0585519774,-0.3443271417,0.2655341256,-0.0814635966,-0.1935313575,-0.285163291,-0.3632811517,-0.1014603325,0.1586708727,-0.210372785,-0.0575273437,0.1414989317,0.2158311636,0.0063014923,-0.2842628401,0.2833899951,-0.0171799381,-0.0403125965,0.0695035724,0.1949809042,-0.0165578894,0.0509075922,0.2000441435,0.2455521475,-0.0607107762,0.1136216674,-0.163632405,-0.1563936504,0.0254898711,-0.3097846551,-0.1548526191,-0.3557708727,-0.1066979022,-0.1063485627,-1.0001338983,0.2415009425,0.018176001,-0.0320618756,-0.0385193986,-0.014342274,-0.054287817,-0.1334128656,0.1887267977,-0.2362833948,-0.0908804503,-0.2402478357,-0.0983532481,-0.0325072359,0.2938364003,0.1207773944,-0.1956566322,0.2376532609,-0.0270521475,0.3270564507,0.0172062162,0.2478635817,0.2151622512,0.4498508347,-0.0440127008,-0.3521560907,-0.224016999,0.077264604,0.0926051735,-0.2655391606,0.2032566553,0.3415325108,0.0879211304,0.2413476831,-0.2517456621,-0.1384149271,0.1487353251,0.3398801887,0.0304677069,-0.167415891,0.2208916409,0.0672524247,-0.1762135403,-0.328643674,0.3071625148,0.0027281901,0.3155266529,-0.1127456586,-0.0359619927,0.0799063217,0.0850500508,0.2726568311,0.0392648539,0.3126901143,0.3383924169,-0.3940236466,-0.0910593242,-0.206768359,0.3777945519,-0.2357116397,0.3014880331,-0.150171085,0.0984342985,-0.1545864809,-0.0350231215,-0.0305800468,-0.1442881457,0.0022358069,-0.0253634443,-0.1181187941,-0.0861852864,0.1721729947,0.2562888782,0.2115255691,-0.3449586685,0.3087548739,-0.2751854979,0.188803443,-0.1296596946,0.3237869663,0.2142037695,-0.2767430451,0.1796971116,0.1262190454,-0.0894298424,-0.0317475843,0.007469072,0.4051158745,0.1083609426,-0.395946267,0.1005374123,-0.2961917489,-0.011771806,-0.0106600979,0.3950098486,0.0574625648,-0.227854987,-0.3850347599,0.1822968181,-0.0952481754,-0.057617234,0.0092447903,-0.2282510606,-0.2015873516,0.2618945806,-0.2359960084,-0.0190026232,-0.1768489533,-0.2147921804,-0.1577707784,0.1261826739,0.0586042838,0.0068972259,0.1457671057,-0.3044127048,-0.2419236009,-0.3073181503,0.2016805837,0.0852336018,-0.2401752344,0.2607752106,0.0406260328,-0.187165165,0.0971165496,0.3086608692,-0.0310979201,0.2154356388,-0.0843955845,0.0613435974,0.3316148037,-0.2888679618,-0.254732806,0.058521193,0.1040357118,0.3130087851,-0.1430138413,0.0612570934,-0.1095306667,0.2378210898,0.4213901872,-0.0250748315,0.2946661,-0.2490978688,0.0482358592,-0.0530122767,0.2111235583,0.2900794067,-0.4105090953,0.2800112633,0.069413766,-0.1493199913,0.1261587664,0.0071820871,0.2795113745,0.360949154,0.1263251459,0.2492999861,0.1751773102,-0.3905768182,-0.2538419175,-0.0791077348,0.0313709042,0.1331980602,0.175248706,-0.0543820977,-0.1321749222,0.3791708826,-0.017125731,0.0518642094,-0.239512486,0.134579189,-0.053109745,0.1304884566,-0.35834433,0.2968042679,-0.0214949074,0.1195284216,0.2676501999,0.2185852029,0.2904819922,-0.0069549237,0.0425029724,0.1732556643,-0.0156717797,0.0051696133,-0.0061616437,-0.4136500607,-0.3472353735,0.244509614,0.3650656507,0.0720033914,-0.3270311716,0.2814521276,-0.2012566216,0.3537265438,-0.2465953703,-0.1510026162,-0.0174130946,0.1979776938,0.3135899249,-0.2467969195,0.2380536787,-0.1664510439,-0.0606909512,0.3336070037,0.1585647798,0.0435721102,0.364578707,0.1765950456,-0.149506133,-0.261585594,-0.140999496,0.1932866158,-0.1922004356,-0.2849690239,-0.029239345,0.0231526597,0.1215205602,-0.2160416278,0.0580283389,0.1533031506,-0.218578999,0.0712784124,0.1642793708,-0.2838684998,-0.2085275584,-0.2881297606,-0.2234586521,0.1776034501,-0.2642227099,-0.3296920976,0.3513328392,0.256089547,-0.2265781272,0.1599071479,0.0605165793,0.0523076023,-0.2195305847,0.1636412351,0.0157923701,0.2803654601,0.0741608421,-0.2239178478,0.2729323537,0.0178516866,-0.0201581556,-0.3366192642,0.0599830041,0.0445984998,-0.0174903218,0.138256182,0.079765445,-0.053946266,0.1700371347,-0.3475676424,0.342080067,-0.1848453363,0.1560280839,-0.3478675964,0.1643540161,-0.0929823921,0.2985609276,0.1492904111,-0.1401376298,-0.3000017242,-0.1723712449,-0.1948664497,-0.3284521874,-0.1196455603,-0.1132614883,-0.1133914051,-0.1809723389,-0.37275475,0.0082231263,0.124451764,-0.3242008155,-0.1634222174,0.1060485496,-0.2707941447,0.2355570566,-0.2234039272,0.3115252267,0.0087613044,0.2513236667,0.0923902283,-0.0460481196,0.3239236523,-0.1646231833,-0.1953046856,-0.0410600183,-0.1233555846,-0.1993433357,0.2264909083,-0.1703608214,-0.0100195559,-0.3534947175,-0.1270460948,0.0342184642,-0.2401466318,-0.1789464113,-0.1322696411,0.1704748719,0.0533569975,0.2987420184,0.1628448016,-0.0420781022,-0.2450910868,-0.0127052645,-0.1765784278,-0.0971522484,-0.0706209076,0.0825669086,-0.1405181253,-0.2889267716,0.2786739096,0.2931558295,0.1496564681,-0.4022124504,-0.2997052085,-0.044353772,-0.257576208,0.2478459836,-0.1387996682,-0.2529322684,0.3509727132,-0.3073274413,-0.2329706481,0.0297304369,0.2928947708,0.0162018982,0.1308861884,0.2604719543,-0.2837901891,0.1713538431,-0.0826469899,-0.2490650259,0.027437596,-0.2808115937,0.1823694286,-0.0610151639,-0.2847205971,0.1427563137,-0.0867529584,-0.3025094971,0.3444348735,0.1667392316,-0.0710435488,-0.1050299841,-0.1294431887,-0.2713799164,0.1168906064,-0.2131582838,0.1699078676,-0.2444571639,-0.2345908858,-0.1238241257,-0.0399199964,0.3138887633,-0.2201204191,0.0929295518,0.0357680036,0.1674907281,-0.2878972382,-0.3257162902,0.259007192,0.0575978256,-0.1364410998,0.0978477706,0.0922883416,0.1011584244,-0.1395336195,-0.2300668846,-0.2585615515,-0.0223668138,-0.0311653759,0.2241750175,-0.1889813935,0.0640145243,-0.2727510054,0.1520716189,-0.1056726377,-0.3334514647,-0.2209833035,-0.2282421424,0.1922113892,0.0995958726,-0.0848556056,0.2472923881,0.0767876213,-0.0889779094,0.1274521109,0.0705015457,-0.2563349334,0.1595520913,0.1596714091,-0.2874294155,-0.1958250835,-0.100452076,-0.3945092147,0.2691548036,-0.3175255201,0.2870320028,-0.2269876623,-0.1018661287,0.1367552959,0.2481852814,-0.3670602207,0.2593206903,-0.0886017054,0.1407559659,-0.2413576125,-0.2013803785,-0.3430601695,-0.3857843058,-0.2857748124,0.1551012923,-0.1374587308,0.1430252228,-0.1086105677,-0.1425915837,-0.0505366672,0.0236325158,0.1311753724,-0.1295766264,-0.103206828,-0.1614218043,0.0315419032,-0.2385290392,0.2315654064,0.1705370821,-0.280384714,-0.0805767648,0.2990227309,-0.2289926177,0.1865214581,0.2625047959,0.158531076,-0.0553614751,0.0005067336,-0.0254281557,-0.1999926282,0.0893515147,0.0423103822,-0.0245028309,0.1316520675,0.2842920125,0.1681948405,-0.3368603528,0.0580267805,-0.3489837075,-0.1623191098,-0.0577576073,-0.1511926759,-0.2518905004,-0.262212734,0.044562858,-0.0972100103,-0.2190609575,-0.2361604922,0.3414789103,-0.0167741557,-0.292638013,0.254214896,0.3005448141,-0.3374443208,-0.1142601533,-0.1336599592,0.0231230293,-0.1022255778,-0.1536065442,-0.0223362248,-0.2703536845,-0.0270018589,0.2716669987,0.1900581113,-0.1410262252,-0.2828266591,0.1853545989,-0.2155983939,-0.2223163857,-0.0084927586,-0.3361119983,0.2012384174,-0.1093979768,0.00527024,0.206421075,-0.0362297438,-0.3701349089,0.3019985923,-0.2604192287,0.045709615,0.276760729,0.0926859483,-0.3472826681,0.2744627185,-0.1021788468,-0.0785424322,0.0033646438,-0.2849786373,0.0395211438,0.3076547621,0.1261589389,0.2980646805,-0.3294186209,-0.1943137702,-0.1425766961,0.0897269521,0.0482743766,-0.3100890607,0.2720714346,0.241777364,-0.3046470688,0.1929503785,-0.1068220354,0.0635022611,0.1248330892,-0.1674053312,-0.1145278608,-0.2902062298,-0.0866089295,0.0577208481,-0.045372018,-0.2531578172,0.294583704,0.2809273186,-0.0513177707,-0.1561841671,-0.2736738182,0.0134085418,-0.1532073409,-0.1861823333,-0.3821896658,0.104552598,0.0126179673,-0.3401622177,-0.3261568116,-0.0486415705,-0.0474500326,-0.3419188324,0.3574366772,-0.1066716985,-0.352535939,0.136068574,0.1754907102,-0.228553217,-0.2929925216,-0.1129414957,0.0306361557,0.0679789987,-0.2202892111,0.1925047237,0.1462366341,0.0264520693,0.36857392,0.0890143438,0.0077725867,-0.0245627609,-0.1194080001,0.072186999,-0.0993636249,0.0302354108,0.1442509597,0.0920155926,-0.1340062825,-0.2943550313,-0.2838738417,-0.3903949342,0.1928422396,0.0100279733,0.0077754277,0.0596341425,0.0767963715,0.1866367925,0.3427711726,0.074774324,0.1180303867,-0.2695158001,0.1950055012,-0.2063019265,-0.3916470463,-0.1743364741,0.0245780369,-0.0370003597,-0.2073736191,-0.233447823,0.1528794024,0.1473860598,-0.1931301282,0.2488915974,0.2902209043,-0.1854787001,0.0374786054,0.0043586127,0.3244021046,-0.2554536883,0.2007712992,0.1127042551,0.047154103,-0.3326984736,0.1984323954,-0.0841534622,0.1623421338,0.2195722645,-0.1042919091,0.0825808325,-0.3785229066,-0.2673205347,0.1882413105,-0.2323140315,-0.1947867502,0.1390589509,-0.0880688099,0.2626055494,-0.3002348686,-0.2481388379,-0.3191574773,0.0059697687,-0.1799927923,0.244611848,-0.3331591761,0.2669841589,0.3924741299,-0.3989850822,0.0858121878,-0.1898410181,-0.2983195619,-0.2049150679,-0.3646979933,0.1274426203,0.1556831999,-0.2719345823,0.2883590292,0.150528613,-0.2983173091,-0.1515891707,-0.3517621818,0.265353568,-0.0108144794,0.1172512882,0.0956081588,-0.203021396,-0.0857012537,0.1795802694,0.1128248797,-0.0051462437,-0.0347368675,0.2984726489,-0.1090973824,-0.3124730384,-0.1977623877,0.1660437458,-0.0962676346,0.304649186,-0.1190547179,0.1602492037,-0.1823254684,-0.0737773034,-0.3487005018,0.0065223273,-0.1832231355,0.1904132562,0.2944463403,-0.2204397258,0.1647658689,-0.3975974512,-0.1896054736,-0.1646936866,-0.1189757739,-0.3850474628,0.0759007647,-0.3859557208,-0.1093120672,-0.1823210373,-0.1556241187,-0.2630761667,-0.2167788104,0.1903513149,0.1532415385,0.0548658487,-0.0564293771,0.2970253434,0.136741689,0.287820897,-0.3243435062,-0.0512144885,-0.2479990716,0.1159622387,-0.0405614047,0.1734925558,-0.1413789533,-0.0023437191,0.0223157746,-0.2651966712,-0.2413356131,-0.1032535861,-0.3990012449,0.2916769103,0.0997971823,-0.0947674398,-0.094745675,0.2870219634,-0.3706478358,0.1790448606,-0.0686108152,-0.3855405685,-0.107276346,-0.3936904996,0.1469980581,0.3004055915,-0.1947280109,-0.248619342,-0.1387093685,-0.2747578719,0.2068247679,0.0404853942,0.2706910525,0.0493951246,0.0581810982,-0.0298245729,-0.054973018,-0.2488312635,-0.0301320445,0.1437857198,0.2574499118,-0.1992739419,0.2488393749,0.09336569,-0.371174157,0.3796135075,-0.0867180857,0.2036486333,0.1931375749,-0.1773146957,-0.0312253291,0.1794362317,-0.0696610595,-0.2796162791,-0.3866019984,0.0808092702,-0.3219428014,0.0344473033,0.2198186925,0.1324142262,0.0134108969,-0.2468212256,-0.1805293542,0.3145977073,0.0857513816,-0.1170582152,-0.0491146625,-0.1677668995,0.0772616148,-0.3557415829,-0.1958811225,-0.2962583989,-0.0510675391,-0.3421139617,0.1742930297,0.3039281937,0.1085087741,-0.1372167165,-0.2868714721,-0.0624409428,0.160184063,-0.0445074436,-0.269506405,0.2196937017,0.131977564,-0.0770288754,0.0357177944,0.1371956031,0.2487256229,-0.0866617329,0.2443033151,0.2363462276,-0.3025910677,0.2755665431,-0.2895707866,0.2650897159,0.214512951,0.2113729069,0.0419405432,0.2527373613,-0.357914994,0.2614519636,-0.2667449901,-0.1405422443,-0.3004122618,0.2844534125,-0.3470635103,-0.2682125621,0.2298005652,0.3057748308,-0.0030399254,-0.0529550563,-0.0678975413,0.2592772453,0.0053698451,-0.1147416039,-0.1326671403,0.1621295933,-0.3475799743,-1.0474881508,-0.1674409398,-0.3570751548,-0.3632364871,-0.3281462157,0.1947723782,0.0961710345,0.1344186922,0.2325945506,0.250532685,-0.2336735804,-0.2951446719,-0.2213014929,0.2007230118,-0.0056632638,0.2207579155,0.1328703148,-0.2158532833,-0.2990901661,-0.0279074975,-0.2450124319,0.2685313694,0.2559498007,-0.2122035794,-0.251966739,-0.1984718971,0.2772708649,-0.2466148907,-0.2814203474,-0.1813347426,0.2606424146,-0.3101134899,-0.1021802139,-0.2621476419,-0.2364398925,0.2145710357,0.3153334197,0.0551757115,-0.1112386868,-0.1519991839,0.2013789347,0.336391282,-0.0382133279,-0.2944036573,-0.0676033923,-0.3140898804,-0.049262392,-0.1522697134,-0.3097269738,-0.3133394501,0.3125556848,-0.2829922649,-0.2685776691,0.0896897861,-0.159558294,0.1780032108,0.2441637119,0.3083705469,0.3683250832,-0.2176990078,0.3240594387,0.1596389282,0.1244745877,0.1012588845,-0.153376621,0.0924072525,-0.3396864514,-0.3169681162,0.3225439341,0.062357443,-0.1134994514,-0.1780714898,-0.3246336753,0.0761984517,-0.0349174395,-0.1488714488,0.1960306468,0.2244702062,-0.0427990213,-0.3508163777,-0.3510265992,-0.2233641254,-0.3193568869,-0.0474700712,0.2307390586,-0.2644716064,-0.0584646599,-0.3424476681,-0.0405039735,-0.0972140682,0.2227755619,0.0372643414,-0.1443387793,-0.2707409211,-0.2559686329,-0.0836942382,0.0572885379,-0.1856441265,-0.1339879854,0.2574225612,0.1446536814,0.291284511,-0.2136115383,0.2966178309,-0.2356019606,-0.0964380476,0.0733029665,0.1399996931,-0.2530183143,0.1994476931,-0.2191494391,-0.3228135828,0.13850978,0.2507450369,-0.1887798343,0.1760835742,-0.2592325809,-0.1747659119,0.2606137902,0.2623887456,0.0140907576,-0.2900438297,0.1204757899,-0.2862553527,-0.1246531795,0.1663402779,0.095575086,-0.3677234755,0.3132639793,0.0145443663
